{"learner":{"attributes":{},"feature_names":[],"feature_types":[],"gradient_booster":{"model":{"cats":{"enc":[],"feature_segments":[],"sorted_idx":[]},"gbtree_model_param":{"num_parallel_tree":"1","num_trees":"175"},"iteration_indptr":[0,1,2,3,4,5,6,7,8,9,10,11,12,13,14,15,16,17,18,19,20,21,22,23,24,25,26,27,28,29,30,31,32,33,34,35,36,37,38,39,40,41,42,43,44,45,46,47,48,49,50,51,52,53,54,55,56,57,58,59,60,61,62,63,64,65,66,67,68,69,70,71,72,73,74,75,76,77,78,79,80,81,82,83,84,85,86,87,88,89,90,91,92,93,94,95,96,97,98,99,100,101,102,103,104,105,106,107,108,109,110,111,112,113,114,115,116,117,118,119,120,121,122,123,124,125,126,127,128,129,130,131,132,133,134,135,136,137,138,139,140,141,142,143,144,145,146,147,148,149,150,151,152,153,154,155,156,157,158,159,160,161,162,163,164,165,166,167,168,169,170,171,172,173,174,175],"tree_info":[0,0,0,0,0,0,0,0,0,0,0,0,0,0,0,0,0,0,0,0,0,0,0,0,0,0,0,0,0,0,0,0,0,0,0,0,0,0,0,0,0,0,0,0,0,0,0,0,0,0,0,0,0,0,0,0,0,0,0,0,0,0,0,0,0,0,0,0,0,0,0,0,0,0,0,0,0,0,0,0,0,0,0,0,0,0,0,0,0,0,0,0,0,0,0,0,0,0,0,0,0,0,0,0,0,0,0,0,0,0,0,0,0,0,0,0,0,0,0,0,0,0,0,0,0,0,0,0,0,0,0,0,0,0,0,0,0,0,0,0,0,0,0,0,0,0,0,0,0,0,0,0,0,0,0,0,0,0,0,0,0,0,0,0,0,0,0,0,0,0,0,0,0,0,0],"trees":[{"base_weights":[-6.3577204E-8,-2.9601488E-1,1.3935947E0,1.4372656E0,-4.9515778E-1,2.078071E0,4.6470273E-1,1.6111672E-1,-7.393593E-2,6.056526E-2,-7.605594E-2,1.14030614E-1,2.4085155E-1,1.3599943E-1,-7.0252353E-3],"categories":[],"categories_nodes":[],"categories_segments":[],"categories_sizes":[],"default_left":[0,0,0,0,0,0,0,0,0,0,0,0,0,0,0],"id":0,"left_children":[1,3,5,7,9,11,13,-1,-1,-1,-1,-1,-1,-1,-1],"loss_changes":[2.9666187E2,2.0544833E2,7.913983E1,2.4425453E1,1.561114E2,1.9642578E1,2.6312765E1,0E0,0E0,0E0,0E0,0E0,0E0,0E0,0E0],"parents":[2147483647,0,0,1,1,2,2,3,3,4,4,5,5,6,6],"right_children":[2,4,6,8,10,12,14,-1,-1,-1,-1,-1,-1,-1,-1],"split_conditions":[2.00001E0,2.00001E0,7E0,7.1E3,7.5E1,9.33E2,1.1E2,1.6111672E-1,-7.393593E-2,6.056526E-2,-7.605594E-2,1.14030614E-1,2.4085155E-1,1.3599943E-1,-7.0252353E-3],"split_indices":[25,16,27,2,12,1,12,0,0,0,0,0,0,0,0],"split_type":[0,0,0,0,0,0,0,0,0,0,0,0,0,0,0],"sum_hessian":[7.171372E2,5.921464E2,1.249908E2,6.0382027E1,5.317644E2,7.125079E1,5.3740005E1,5.6155285E1,4.226742E0,1.03051994E2,4.287124E2,1.9724796E1,5.1525997E1,1.9523521E1,3.4216484E1],"tree_param":{"num_deleted":"0","num_feature":"29","num_nodes":"15","size_leaf_vector":"1"}},{"base_weights":[-1.6214298E-3,-2.7167544E-1,1.1854035E0,4.4302413E-1,-6.78891E-1,1.721394E0,4.114681E-1,1.0226702E-1,-1.3591828E-3,8.864823E-2,-8.1861E-2,2.3308559E-1,1.28115E-1,1.1628288E-1,-6.362927E-3],"categories":[],"categories_nodes":[],"categories_segments":[],"categories_sizes":[],"default_left":[0,0,0,0,0,0,0,0,0,0,0,0,0,0,0],"id":1,"left_children":[1,3,5,7,9,11,13,-1,-1,-1,-1,-1,-1,-1,-1],"loss_changes":[2.3015634E2,1.7052975E2,5.4492172E1,5.63647E1,8.230545E1,1.802449E1,1.9979782E1,0E0,0E0,0E0,0E0,0E0,0E0,0E0,0E0],"parents":[2147483647,0,0,1,1,2,2,3,3,4,4,5,5,6,6],"right_children":[2,4,6,8,10,12,14,-1,-1,-1,-1,-1,-1,-1,-1],"split_conditions":[2.00001E0,1E2,7E0,3E0,2.00001E0,2E0,1.1E2,1.0226702E-1,-1.3591828E-3,8.864823E-2,-8.1861E-2,2.3308559E-1,1.28115E-1,1.1628288E-1,-6.362927E-3],"split_indices":[25,12,27,27,16,27,12,0,0,0,0,0,0,0,0],"split_type":[0,0,0,0,0,0,0,0,0,0,0,0,0,0,0],"sum_hessian":[7.1597565E2,5.8390546E2,1.3207024E2,2.1190512E2,3.720003E2,7.7306946E1,5.4763287E1,9.282711E1,1.1907802E2,3.0044554E1,3.4195575E2,3.0621246E1,4.6685703E1,2.06531E1,3.4110188E1],"tree_param":{"num_deleted":"0","num_feature":"29","num_nodes":"15","size_leaf_vector":"1"}},{"base_weights":[-2.3962974E-3,7.0737654E-1,-3.8024035E-1,4.4754747E-1,1.7162538E0,-6.144547E-1,6.248233E-1,-1.0642704E-2,9.339385E-2,1.8243559E-1,6.338941E-2,-1.2251538E-3,-8.904972E-2,1.279686E-1,2.8649783E-2],"categories":[],"categories_nodes":[],"categories_segments":[],"categories_sizes":[],"default_left":[0,0,0,0,0,0,0,0,0,0,0,0,0,0,0],"id":2,"left_children":[1,3,5,7,9,11,13,-1,-1,-1,-1,-1,-1,-1,-1],"loss_changes":[1.915802E2,6.428732E1,1.10124016E2,5.363919E1,4.749161E0,6.2922424E1,1.9263584E1,0E0,0E0,0E0,0E0,0E0,0E0,0E0,0E0],"parents":[2147483647,0,0,1,1,2,2,3,3,4,4,5,5,6,6],"right_children":[2,4,6,8,10,12,14,-1,-1,-1,-1,-1,-1,-1,-1],"split_conditions":[3E0,2.00001E0,2.00001E0,2.00001E0,1.35E4,1E2,9.8E1,-1.0642704E-2,9.339385E-2,1.8243559E-1,6.338941E-2,-1.2251538E-3,-8.904972E-2,1.279686E-1,2.8649783E-2],"split_indices":[27,25,25,13,2,12,12,0,0,0,0,0,0,0,0],"split_type":[0,0,0,0,0,0,0,0,0,0,0,0,0,0,0],"sum_hessian":[7.1235956E2,2.4717462E2,4.6518494E2,1.977016E2,4.947302E1,3.7758362E2,8.760132E1,9.279454E1,1.0490705E2,4.4357246E1,5.1157703E0,1.1900703E2,2.585766E2,2.8893213E1,5.8708107E1],"tree_param":{"num_deleted":"0","num_feature":"29","num_nodes":"15","size_leaf_vector":"1"}},{"base_weights":[-2.9527668E-3,4.319822E-1,-5.25884E-1,2.0279373E-1,1.3205286E0,-7.4209166E-1,3.6682394E-1,5.4446694E-2,-3.764921E-2,6.0358316E-2,1.5712003E-1,1.6492706E-3,-9.333681E-2,7.719275E-2,-1.6695742E-2],"categories":[],"categories_nodes":[],"categories_segments":[],"categories_sizes":[],"default_left":[0,0,0,0,0,0,0,0,0,0,0,0,0,0,0],"id":3,"left_children":[1,3,5,7,9,11,13,-1,-1,-1,-1,-1,-1,-1,-1],"loss_changes":[1.6136983E2,7.861281E1,6.2452126E1,6.1384445E1,1.32929535E1,3.7694412E1,1.3855836E1,0E0,0E0,0E0,0E0,0E0,0E0,0E0,0E0],"parents":[2147483647,0,0,1,1,2,2,3,3,4,4,5,5,6,6],"right_children":[2,4,6,8,10,12,14,-1,-1,-1,-1,-1,-1,-1,-1],"split_conditions":[6E0,2.00001E0,2.00001E0,3.572E3,9.33E2,8.5E1,4.03E3,5.4446694E-2,-3.764921E-2,6.0358316E-2,1.5712003E-1,1.6492706E-3,-9.333681E-2,7.719275E-2,-1.6695742E-2],"split_indices":[27,25,25,2,1,12,2,0,0,0,0,0,0,0,0],"split_type":[0,0,0,0,0,0,0,0,0,0,0,0,0,0,0],"sum_hessian":[7.075029E2,3.8634448E2,3.2115845E2,3.08102E2,7.8242485E1,2.586773E2,6.2481144E1,1.9383484E2,1.14267166E2,2.1152412E1,5.7090073E1,5.227468E1,2.0640263E2,3.5268562E1,2.7212582E1],"tree_param":{"num_deleted":"0","num_feature":"29","num_nodes":"15","size_leaf_vector":"1"}},{"base_weights":[-3.5256261E-3,6.330677E-1,-3.1525278E-1,9.72036E-1,1.3024425E-2,-5.258709E-1,5.177954E-1,5.8278956E-2,1.5955961E-1,6.541781E-2,-3.7132084E-2,6.7948E-2,-6.5805234E-2,8.2088046E-2,-2.581068E-2],"categories":[],"categories_nodes":[],"categories_segments":[],"categories_sizes":[],"default_left":[0,0,0,0,0,0,0,0,0,0,0,0,0,0,0],"id":4,"left_children":[1,3,5,7,9,11,13,-1,-1,-1,-1,-1,-1,-1,-1],"loss_changes":[1.3976503E2,4.8646637E1,8.322444E1,3.5398514E1,2.0657932E1,6.065104E1,2.2767502E1,0E0,0E0,0E0,0E0,0E0,0E0,0E0,0E0],"parents":[2147483647,0,0,1,1,2,2,3,3,4,4,5,5,6,6],"right_children":[2,4,6,8,10,12,14,-1,-1,-1,-1,-1,-1,-1,-1],"split_conditions":[9E1,3.75E3,2.00001E0,1.02E3,3E0,2.00001E0,1.2E1,5.8278956E-2,1.5955961E-1,6.541781E-2,-3.7132084E-2,6.7948E-2,-6.5805234E-2,8.2088046E-2,-2.581068E-2],"split_indices":[12,2,25,1,27,16,27,0,0,0,0,0,0,0,0],"split_type":[0,0,0,0,0,0,0,0,0,0,0,0,0,0,0],"sum_hessian":[7.023009E2,2.3051797E2,4.7178293E2,1.48673E2,8.184497E1,3.7686862E2,9.49143E1,9.27254E1,5.59476E1,3.0411434E1,5.1433537E1,3.68348E1,3.4003384E2,6.82114E1,2.6702902E1],"tree_param":{"num_deleted":"0","num_feature":"29","num_nodes":"15","size_leaf_vector":"1"}},{"base_weights":[-3.849638E-3,3.632966E-1,-4.711259E-1,-2.1074284E-3,7.53783E-1,-6.732554E-1,2.9640782E-1,-2.8850079E-2,7.261026E-2,1.13534644E-1,1.5868396E-2,-1.3259555E-2,-9.1046356E-2,9.250663E-2,-5.8631966E-4],"categories":[],"categories_nodes":[],"categories_segments":[],"categories_sizes":[],"default_left":[0,0,0,0,0,0,0,0,0,0,0,0,0,0,0],"id":5,"left_children":[1,3,5,7,9,11,13,-1,-1,-1,-1,-1,-1,-1,-1],"loss_changes":[1.1972487E2,5.576447E1,4.7836815E1,4.2522346E1,4.2718414E1,3.1089424E1,1.2300334E1,0E0,0E0,0E0,0E0,0E0,0E0,0E0,0E0],"parents":[2147483647,0,0,1,1,2,2,3,3,4,4,5,5,6,6],"right_children":[2,4,6,8,10,12,14,-1,-1,-1,-1,-1,-1,-1,-1],"split_conditions":[6E0,2.00001E0,2.00001E0,1.285E3,3.572E3,1E2,1E2,-2.8850079E-2,7.261026E-2,1.13534644E-1,1.5868396E-2,-1.3259555E-2,-9.1046356E-2,9.250663E-2,-5.8631966E-4],"split_indices":[27,13,25,1,2,12,12,0,0,0,0,0,0,0,0],"split_type":[0,0,0,0,0,0,0,0,0,0,0,0,0,0,0],"sum_hessian":[6.958677E2,3.8981024E2,3.0605743E2,2.0188637E2,1.8792386E2,2.4235599E2,6.3701454E1,1.4533304E2,5.6553337E1,1.1395242E2,7.3971436E1,7.4381035E1,1.6797495E2,2.0014734E1,4.3686718E1],"tree_param":{"num_deleted":"0","num_feature":"29","num_nodes":"15","size_leaf_vector":"1"}},{"base_weights":[-4.2567453E-3,4.267157E-1,-3.4620926E-1,8.668872E-2,9.627353E-1,-5.2709824E-1,3.8682634E-1,-2.5935156E-2,8.038928E-2,1.2304626E-2,1.1383678E-1,-6.064475E-3,-7.800268E-2,9.298748E-2,3.3469182E-3],"categories":[],"categories_nodes":[],"categories_segments":[],"categories_sizes":[],"default_left":[0,0,0,0,0,0,0,0,0,0,0,0,0,0,0],"id":6,"left_children":[1,3,5,7,9,11,13,-1,-1,-1,-1,-1,-1,-1,-1],"loss_changes":[1.0198274E2,5.571731E1,5.1366543E1,4.697224E1,1.7370224E1,3.651471E1,1.4734016E1,0E0,0E0,0E0,0E0,0E0,0E0,0E0,0E0],"parents":[2147483647,0,0,1,1,2,2,3,3,4,4,5,5,6,6],"right_children":[2,4,6,8,10,12,14,-1,-1,-1,-1,-1,-1,-1,-1],"split_conditions":[2.1E3,2.00001E0,2.00001E0,1.17E3,3E1,1E2,4E0,-2.5935156E-2,8.038928E-2,1.2304626E-2,1.1383678E-1,-6.064475E-3,-7.800268E-2,9.298748E-2,3.3469182E-3],"split_indices":[2,13,25,1,28,12,27,0,0,0,0,0,0,0,0],"split_type":[0,0,0,0,0,0,0,0,0,0,0,0,0,0,0],"sum_hessian":[6.900059E2,3.0515833E2,3.848476E2,1.874256E2,1.1773274E2,3.0890176E2,7.594583E1,1.26857254E2,6.056834E1,2.0659832E1,9.7072914E1,1.0904308E2,1.9985869E2,2.92942E1,4.665163E1],"tree_param":{"num_deleted":"0","num_feature":"29","num_nodes":"15","size_leaf_vector":"1"}},{"base_weights":[-4.42248E-3,4.6238416E-1,-2.8633198E-1,2.3908049E-1,9.79974E-1,-4.7126144E-1,3.7973928E-1,4.7052827E-2,-3.4897473E-2,1.18650034E-1,3.6986836E-3,-3.1364046E-3,-7.138377E-2,-1.778397E-2,6.568686E-2],"categories":[],"categories_nodes":[],"categories_segments":[],"categories_sizes":[],"default_left":[0,0,0,0,0,0,0,0,0,0,0,0,0,0,0],"id":7,"left_children":[1,3,5,7,9,11,13,-1,-1,-1,-1,-1,-1,-1,-1],"loss_changes":[9.023957E1,2.9607883E1,5.2839706E1,2.4894144E1,1.5048775E1,3.5732002E1,1.4558113E1,0E0,0E0,0E0,0E0,0E0,0E0,0E0,0E0],"parents":[2147483647,0,0,1,1,2,2,3,3,4,4,5,5,6,6],"right_children":[2,4,6,8,10,12,14,-1,-1,-1,-1,-1,-1,-1,-1],"split_conditions":[3E0,1.26E3,2.00001E0,1.29E2,1.86E2,1E2,8.6E2,4.7052827E-2,-3.4897473E-2,1.18650034E-1,3.6986836E-3,-3.1364046E-3,-7.138377E-2,-1.778397E-2,6.568686E-2],"split_indices":[27,1,25,12,12,12,1,0,0,0,0,0,0,0,0],"split_type":[0,0,0,0,0,0,0,0,0,0,0,0,0,0,0],"sum_hessian":[6.837194E2,2.5719565E2,4.2652377E2,1.8069873E2,7.64969E1,3.3406555E2,9.24582E1,1.2980838E2,5.089035E1,6.254131E1,1.3955592E1,1.19140564E2,2.1492499E2,3.0815754E1,6.164245E1],"tree_param":{"num_deleted":"0","num_feature":"29","num_nodes":"15","size_leaf_vector":"1"}},{"base_weights":[-4.5959842E-3,3.5339782E-1,-3.3280516E-1,2.7699629E-2,7.8122663E-1,1.1075184E-1,-5.7236135E-1,-3.1482764E-2,5.555702E-2,8.78655E-2,-4.810663E-2,-7.3246146E-3,8.6830616E-2,-7.2964326E-2,-1.258293E-3],"categories":[],"categories_nodes":[],"categories_segments":[],"categories_sizes":[],"default_left":[0,0,0,0,0,0,0,0,0,0,0,0,0,0,0],"id":8,"left_children":[1,3,5,7,9,11,13,-1,-1,-1,-1,-1,-1,-1,-1],"loss_changes":[7.982989E1,4.5260925E1,3.772599E1,3.3723396E1,1.7692772E1,1.7506256E1,2.0268143E1,0E0,0E0,0E0,0E0,0E0,0E0,0E0,0E0],"parents":[2147483647,0,0,1,1,2,2,3,3,4,4,5,5,6,6],"right_children":[2,4,6,8,10,12,14,-1,-1,-1,-1,-1,-1,-1,-1],"split_conditions":[2.9E3,1.04E3,9.8E1,2.00001E0,1.6E1,2.00001E0,2.00001E0,-3.1482764E-2,5.555702E-2,8.78655E-2,-4.810663E-2,-7.3246146E-3,8.6830616E-2,-7.2964326E-2,-1.258293E-3],"split_indices":[2,1,12,13,27,25,25,0,0,0,0,0,0,0,0],"split_type":[0,0,0,0,0,0,0,0,0,0,0,0,0,0,0],"sum_hessian":[6.774205E2,3.2397183E2,3.5344867E2,1.8454549E2,1.3942635E2,1.2413701E2,2.2931166E2,1.12166145E2,7.237933E1,1.2971814E2,9.7081995E0,1.00604965E2,2.3532043E1,1.7877696E2,5.0534702E1],"tree_param":{"num_deleted":"0","num_feature":"29","num_nodes":"15","size_leaf_vector":"1"}},{"base_weights":[-4.781017E-3,2.7500257E-1,-3.9121956E-1,1.1736913E-1,8.694713E-1,6.2428266E-2,-6.195426E-1,-2.049541E-2,4.3828055E-2,1.2515603E-1,5.643149E-2,-2.2066401E-2,8.648311E-2,-7.919307E-2,-6.0999333E-3],"categories":[],"categories_nodes":[],"categories_segments":[],"categories_sizes":[],"default_left":[0,0,0,0,0,0,0,0,0,0,0,0,0,0,0],"id":9,"left_children":[1,3,5,7,9,11,13,-1,-1,-1,-1,-1,-1,-1,-1],"loss_changes":[7.278796E1,3.649169E1,2.9322033E1,3.213643E1,8.818592E0,2.1898094E1,1.8068443E1,0E0,0E0,0E0,0E0,0E0,0E0,0E0,0E0],"parents":[2147483647,0,0,1,1,2,2,3,3,4,4,5,5,6,6],"right_children":[2,4,6,8,10,12,14,-1,-1,-1,-1,-1,-1,-1,-1],"split_conditions":[6E0,2.00001E0,1E2,2.00001E0,2E0,6.1E1,2.00001E0,-2.049541E-2,4.3828055E-2,1.2515603E-1,5.643149E-2,-2.2066401E-2,8.648311E-2,-7.919307E-2,-6.0999333E-3],"split_indices":[27,25,12,13,27,4,25,0,0,0,0,0,0,0,0],"split_type":[0,0,0,0,0,0,0,0,0,0,0,0,0,0,0],"sum_hessian":[6.7122473E2,3.8950757E2,2.817172E2,3.0881696E2,8.06906E1,9.456184E1,1.8715535E2,1.5424986E2,1.5456711E2,3.4451817E1,4.623878E1,7.0436455E1,2.4125383E1,1.42696E2,4.4459354E1],"tree_param":{"num_deleted":"0","num_feature":"29","num_nodes":"15","size_leaf_vector":"1"}},{"base_weights":[-4.6279617E-3,3.128273E-1,-3.050556E-1,1.1847907E-1,8.8258666E-1,1.5165243E-1,-5.072901E-1,-1.6295908E-2,5.468727E-2,9.9877074E-2,-5.7232983E-2,-2.2860387E-2,4.5389142E-2,-5.987199E-2,3.6796484E-2],"categories":[],"categories_nodes":[],"categories_segments":[],"categories_sizes":[],"default_left":[0,0,0,0,0,0,0,0,0,0,0,0,0,0,0],"id":10,"left_children":[1,3,5,7,9,11,13,-1,-1,-1,-1,-1,-1,-1,-1],"loss_changes":[6.3497032E1,3.5741905E1,3.1669971E1,2.9331352E1,1.4463684E1,1.2257375E1,1.9210632E1,0E0,0E0,0E0,0E0,0E0,0E0,0E0,0E0],"parents":[2147483647,0,0,1,1,2,2,3,3,4,4,5,5,6,6],"right_children":[2,4,6,8,10,12,14,-1,-1,-1,-1,-1,-1,-1,-1],"split_conditions":[2.9E3,1.26E3,3E0,2.00001E0,1.6E1,2.00001E0,7.8E1,-1.6295908E-2,5.468727E-2,9.9877074E-2,-5.7232983E-2,-2.2860387E-2,4.5389142E-2,-5.987199E-2,3.6796484E-2],"split_indices":[2,1,27,13,27,13,4,0,0,0,0,0,0,0,0],"split_type":[0,0,0,0,0,0,0,0,0,0,0,0,0,0,0],"sum_hessian":[6.6377985E2,3.2272363E2,3.410562E2,2.4154065E2,8.118297E1,1.04749535E2,2.3630669E2,1.4614717E2,9.539348E1,7.5469765E1,5.7132063E0,4.64956E1,5.8253933E1,2.1424268E2,2.2064005E1],"tree_param":{"num_deleted":"0","num_feature":"29","num_nodes":"15","size_leaf_vector":"1"}},{"base_weights":[-4.574754E-3,5.010278E-1,-1.7863826E-1,7.734605E-1,-1.8524223E-3,-4.567968E-1,1.417297E-1,1.9286642E-2,1.06751576E-1,-9.7745135E-2,1.1658947E-2,-1.2764412E-2,-7.7475466E-2,2.652425E-2,-6.561134E-2],"categories":[],"categories_nodes":[],"categories_segments":[],"categories_sizes":[],"default_left":[0,0,0,0,0,0,0,0,0,0,0,0,0,0,0],"id":11,"left_children":[1,3,5,7,9,11,13,-1,-1,-1,-1,-1,-1,-1,-1],"loss_changes":[5.81154E1,2.3170906E1,4.3838333E1,1.8522095E1,7.095986E0,2.7443039E1,2.2745438E1,0E0,0E0,0E0,0E0,0E0,0E0,0E0,0E0],"parents":[2147483647,0,0,1,1,2,2,3,3,4,4,5,5,6,6],"right_children":[2,4,6,8,10,12,14,-1,-1,-1,-1,-1,-1,-1,-1],"split_conditions":[7.3E1,3.6E3,1.04E3,2.00001E0,2.4E1,1.173E3,1.6E1,1.9286642E-2,1.06751576E-1,-9.7745135E-2,1.1658947E-2,-1.2764412E-2,-7.7475466E-2,2.652425E-2,-6.561134E-2],"split_indices":[12,2,1,8,28,24,27,0,0,0,0,0,0,0,0],"split_type":[0,0,0,0,0,0,0,0,0,0,0,0,0,0,0],"sum_hessian":[6.58333E2,1.6811902E2,4.9021402E2,1.0869566E2,5.942335E1,2.6216455E2,2.2804945E2,3.709996E1,7.15957E1,5.648057E0,5.3775295E1,1.2950319E2,1.3266136E2,1.9805624E2,2.9993212E1],"tree_param":{"num_deleted":"0","num_feature":"29","num_nodes":"15","size_leaf_vector":"1"}},{"base_weights":[-4.7843223E-3,-1.5379862E-1,5.235721E-1,5.8343214E-1,-2.7482775E-1,7.143528E-1,-5.8954444E-2,6.731865E-2,-1.0853423E-1,2.2911277E-2,-4.506639E-2,8.747315E-2,-6.002745E-3,-7.267436E-2,1.3879711E-2],"categories":[],"categories_nodes":[],"categories_segments":[],"categories_sizes":[],"default_left":[0,0,0,0,0,0,0,0,0,0,0,0,0,0,0],"id":12,"left_children":[1,3,5,7,9,11,13,-1,-1,-1,-1,-1,-1,-1,-1],"loss_changes":[5.1641056E1,4.580743E1,1.607819E1,1.1584072E1,3.9103115E1,1.3561306E1,4.9238505E0,0E0,0E0,0E0,0E0,0E0,0E0,0E0,0E0],"parents":[2147483647,0,0,1,1,2,2,3,3,4,4,5,5,6,6],"right_children":[2,4,6,8,10,12,14,-1,-1,-1,-1,-1,-1,-1,-1],"split_conditions":[2.00001E0,2.00001E0,1.2E1,9E3,7.5E1,8.5E3,7.2E2,6.731865E-2,-1.0853423E-1,2.2911277E-2,-4.506639E-2,8.747315E-2,-6.002745E-3,-7.267436E-2,1.3879711E-2],"split_indices":[25,16,27,2,12,2,1,0,0,0,0,0,0,0,0],"split_type":[0,0,0,0,0,0,0,0,0,0,0,0,0,0,0],"sum_hessian":[6.538811E2,5.1058722E2,1.4329387E2,7.146265E1,4.3912457E2,1.0777173E2,3.5522144E1,6.8381386E1,3.0812652E0,1.1350889E2,3.2561566E2,8.9173744E1,1.8597988E1,7.504635E0,2.801751E1],"tree_param":{"num_deleted":"0","num_feature":"29","num_nodes":"15","size_leaf_vector":"1"}},{"base_weights":[-4.7763567E-3,1.3954337E-1,-5.0584245E-1,5.445366E-4,6.4420164E-1,-6.512768E-1,-5.500845E-2,2.7464679E-2,-2.8106777E-2,7.888954E-2,-5.437151E-3,-7.4827634E-2,3.746452E-2,4.038806E-2,-3.2076538E-2],"categories":[],"categories_nodes":[],"categories_segments":[],"categories_sizes":[],"default_left":[0,0,0,0,0,0,0,0,0,0,0,0,0,0,0],"id":13,"left_children":[1,3,5,7,9,11,13,-1,-1,-1,-1,-1,-1,-1,-1],"loss_changes":[4.687393E1,3.530311E1,9.467915E0,3.0613457E1,1.1028484E1,1.1177254E1,4.5742536E0,0E0,0E0,0E0,0E0,0E0,0E0,0E0,0E0],"parents":[2147483647,0,0,1,1,2,2,3,3,4,4,5,5,6,6],"right_children":[2,4,6,8,10,12,14,-1,-1,-1,-1,-1,-1,-1,-1],"split_conditions":[1.2E1,2.00001E0,2.00001E0,1.01E2,8.5E3,1.26E3,1.02E2,2.7464679E-2,-2.8106777E-2,7.888954E-2,-5.437151E-3,-7.4827634E-2,3.746452E-2,4.038806E-2,-3.2076538E-2],"split_indices":[27,25,25,12,2,3,12,0,0,0,0,0,0,0,0],"split_type":[0,0,0,0,0,0,0,0,0,0,0,0,0,0,0],"sum_hessian":[6.462263E2,5.0227884E2,1.4394753E2,3.9459576E2,1.0768307E2,1.0850147E2,3.5446045E1,1.9997673E2,1.9461902E2,8.909893E1,1.8584143E1,9.937622E1,9.125253E0,1.28088875E1,2.263716E1],"tree_param":{"num_deleted":"0","num_feature":"29","num_nodes":"15","size_leaf_vector":"1"}},{"base_weights":[-4.6450333E-3,2.1535097E-1,-3.2351315E-1,-3.460794E-2,5.4193914E-1,-5.32218E-1,6.385367E-2,3.4730934E-2,-3.4605797E-2,7.546143E-2,1.6334696E-2,-1.28845E-2,-7.349568E-2,-1.3266416E-2,5.542065E-2],"categories":[],"categories_nodes":[],"categories_segments":[],"categories_sizes":[],"default_left":[0,0,0,0,0,0,0,0,0,0,0,0,0,0,0],"id":14,"left_children":[1,3,5,7,9,11,13,-1,-1,-1,-1,-1,-1,-1,-1],"loss_changes":[4.5019897E1,3.1021059E1,2.1215614E1,2.5820696E1,1.3138626E1,1.3838318E1,8.999499E0,0E0,0E0,0E0,0E0,0E0,0E0,0E0,0E0],"parents":[2147483647,0,0,1,1,2,2,3,3,4,4,5,5,6,6],"right_children":[2,4,6,8,10,12,14,-1,-1,-1,-1,-1,-1,-1,-1],"split_conditions":[3.75E3,1.03E3,1.225E3,1.064E3,1.3E2,1.15E3,2.00001E0,3.4730934E-2,-3.4605797E-2,7.546143E-2,1.6334696E-2,-1.28845E-2,-7.349568E-2,-1.3266416E-2,5.542065E-2],"split_indices":[2,1,1,24,12,24,25,0,0,0,0,0,0,0,0],"split_type":[0,0,0,0,0,0,0,0,0,0,0,0,0,0,0],"sum_hessian":[6.3977563E2,3.787737E2,2.6100192E2,2.1506482E2,1.637089E2,1.6937332E2,9.162859E1,9.6552124E1,1.18512695E2,1.04187874E2,5.952102E1,5.7200882E1,1.1217244E2,6.593385E1,2.5694744E1],"tree_param":{"num_deleted":"0","num_feature":"29","num_nodes":"15","size_leaf_vector":"1"}},{"base_weights":[-4.5263204E-3,-2.8657266E-1,2.0808278E-1,1.5260199E-1,-4.6008483E-1,-4.9627263E-2,5.0247276E-1,-6.3183986E-2,3.286091E-2,4.302222E-2,-5.400763E-2,3.3852145E-2,-3.5437852E-2,7.4197866E-2,8.97616E-3],"categories":[],"categories_nodes":[],"categories_segments":[],"categories_sizes":[],"default_left":[0,0,0,0,0,0,0,0,0,0,0,0,0,0,0],"id":15,"left_children":[1,3,5,7,9,11,13,-1,-1,-1,-1,-1,-1,-1,-1],"loss_changes":[3.8226814E1,2.0948807E1,2.7602283E1,1.1024439E1,1.4236816E1,2.315461E1,1.6713871E1,0E0,0E0,0E0,0E0,0E0,0E0,0E0,0E0],"parents":[2147483647,0,0,1,1,2,2,3,3,4,4,5,5,6,6],"right_children":[2,4,6,8,10,12,14,-1,-1,-1,-1,-1,-1,-1,-1],"split_conditions":[2.00001E0,8.2E1,1.04E3,3.6E1,2.00001E0,1.054E3,1.3E2,-6.3183986E-2,3.286091E-2,4.302222E-2,-5.400763E-2,3.3852145E-2,-3.5437852E-2,7.4197866E-2,8.97616E-3],"split_indices":[7,12,1,28,16,24,12,0,0,0,0,0,0,0,0],"split_type":[0,0,0,0,0,0,0,0,0,0,0,0,0,0,0],"sum_hessian":[6.354844E2,2.729896E2,3.6249475E2,7.734445E1,1.9564514E2,1.9373225E2,1.687625E2,1.3699156E1,6.3645298E1,1.5768045E1,1.798771E2,8.5158585E1,1.0857368E2,1.0628501E2,6.2477486E1],"tree_param":{"num_deleted":"0","num_feature":"29","num_nodes":"15","size_leaf_vector":"1"}},{"base_weights":[-4.42683E-3,8.5120544E-2,-6.306512E-1,-7.322249E-2,4.7178873E-1,-7.564834E-1,-2.0648094E-1,1.6843408E-2,-3.441709E-2,6.6175915E-2,1.8086641E-3,-8.014324E-2,6.68559E-3,-4.797289E-2,9.996102E-2],"categories":[],"categories_nodes":[],"categories_segments":[],"categories_sizes":[],"default_left":[0,0,0,0,0,0,0,0,0,0,0,0,0,0,0],"id":16,"left_children":[1,3,5,7,9,11,13,-1,-1,-1,-1,-1,-1,-1,-1],"loss_changes":[3.547806E1,3.3927082E1,4.0683746E0,2.5829556E1,1.3861328E1,2.2987328E0,6.900639E0,0E0,0E0,0E0,0E0,0E0,0E0,0E0,0E0],"parents":[2147483647,0,0,1,1,2,2,3,3,4,4,5,5,6,6],"right_children":[2,4,6,8,10,12,14,-1,-1,-1,-1,-1,-1,-1,-1],"split_conditions":[1.6E1,1.26E3,2.00001E0,1.04E2,1.62E2,1.122E3,5.7E1,1.6843408E-2,-3.441709E-2,6.6175915E-2,1.8086641E-3,-8.014324E-2,6.68559E-3,-4.797289E-2,9.996102E-2],"split_indices":[27,1,25,12,12,3,0,0,0,0,0,0,0,0,0],"split_type":[0,0,0,0,0,0,0,0,0,0,0,0,0,0,0],"sum_hessian":[6.307125E2,5.5256256E2,7.814998E1,3.9260074E2,1.599618E2,5.966625E1,1.8483732E1,2.0771758E2,1.8488316E2,1.1242821E2,4.7533596E1,5.660271E1,3.0635376E0,1.5560616E1,2.9231164E0],"tree_param":{"num_deleted":"0","num_feature":"29","num_nodes":"15","size_leaf_vector":"1"}},{"base_weights":[-4.3412764E-3,-1.2665038E-1,4.1947162E-1,4.803288E-1,-2.3142245E-1,9.6060336E-1,2.531341E-1,5.576518E-2,-1.0259632E-1,-4.763083E-3,-5.509763E-2,1.142298E-1,4.8607174E-2,-2.3298284E-2,4.7757354E-2],"categories":[],"categories_nodes":[],"categories_segments":[],"categories_sizes":[],"default_left":[0,0,0,0,0,0,0,0,0,0,0,0,0,0,0],"id":17,"left_children":[1,3,5,7,9,11,13,-1,-1,-1,-1,-1,-1,-1,-1],"loss_changes":[3.258552E1,3.1133272E1,1.2429314E1,8.973486E0,2.4445854E1,2.2679386E0,1.2008478E1,0E0,0E0,0E0,0E0,0E0,0E0,0E0,0E0],"parents":[2147483647,0,0,1,1,2,2,3,3,4,4,5,5,6,6],"right_children":[2,4,6,8,10,12,14,-1,-1,-1,-1,-1,-1,-1,-1],"split_conditions":[2.00001E0,2.00001E0,2E0,9E3,1.3E2,4.6E3,8.6E2,5.576518E-2,-1.0259632E-1,-4.763083E-3,-5.509763E-2,1.142298E-1,4.8607174E-2,-2.3298284E-2,4.7757354E-2],"split_indices":[25,16,27,2,12,2,1,0,0,0,0,0,0,0,0],"split_type":[0,0,0,0,0,0,0,0,0,0,0,0,0,0,0],"sum_hessian":[6.266003E2,4.8681146E2,1.3978883E2,7.113256E1,4.156789E2,3.174394E1,1.0804488E2,6.8258415E1,2.8741488E0,2.6462732E2,1.5105157E2,2.1937155E1,9.806787E0,3.41155E1,7.392938E1],"tree_param":{"num_deleted":"0","num_feature":"29","num_nodes":"15","size_leaf_vector":"1"}},{"base_weights":[-4.02699E-3,1.7838746E-1,-2.774827E-1,-1.9382358E-2,4.8912114E-1,1.0578391E-1,-4.655383E-1,-1.0248576E-2,9.20187E-2,-1.4956518E-2,6.1315455E-2,-1.008677E-2,6.13135E-2,-5.541811E-2,3.6681052E-2],"categories":[],"categories_nodes":[],"categories_segments":[],"categories_sizes":[],"default_left":[0,0,0,0,0,0,0,0,0,0,0,0,0,0,0],"id":18,"left_children":[1,3,5,7,9,11,13,-1,-1,-1,-1,-1,-1,-1,-1],"loss_changes":[3.1022484E1,2.2936108E1,1.798525E1,1.7969978E1,1.1589062E1,8.735256E0,1.2534E1,0E0,0E0,0E0,0E0,0E0,0E0,0E0,0E0],"parents":[2147483647,0,0,1,1,2,2,3,3,4,4,5,5,6,6],"right_children":[2,4,6,8,10,12,14,-1,-1,-1,-1,-1,-1,-1,-1],"split_conditions":[3.75E3,2.00001E0,3E0,1.58E3,3E1,1E0,7.8E1,-1.0248576E-2,9.20187E-2,-1.4956518E-2,6.1315455E-2,-1.008677E-2,6.13135E-2,-5.541811E-2,3.6681052E-2],"split_indices":[2,13,27,1,28,3,4,0,0,0,0,0,0,0,0],"split_type":[0,0,0,0,0,0,0,0,0,0,0,0,0,0,0],"sum_hessian":[6.199217E2,3.720713E2,2.4785043E2,2.2793634E2,1.4413493E2,8.17261E1,1.6612433E2,2.1023254E2,1.7703808E1,2.340573E1,1.2072921E2,5.8641666E1,2.308443E1,1.5043736E2,1.568696E1],"tree_param":{"num_deleted":"0","num_feature":"29","num_nodes":"15","size_leaf_vector":"1"}},{"base_weights":[-3.6680496E-3,-5.284232E-1,8.553815E-2,2.8413522E-1,-6.8611264E-1,1.9501041E-1,-3.3361042E-1,-4.721317E-3,1.1407204E-1,-1.7318126E-2,-8.620397E-2,6.663741E-2,1.0606792E-2,8.690414E-2,-3.8723644E-2],"categories":[],"categories_nodes":[],"categories_segments":[],"categories_sizes":[],"default_left":[0,0,0,0,0,0,0,0,0,0,0,0,0,0,0],"id":19,"left_children":[1,3,5,7,9,11,13,-1,-1,-1,-1,-1,-1,-1,-1],"loss_changes":[2.888428E1,1.1682209E1,2.4265692E1,4.390129E0,6.6523514E0,1.7488276E1,7.4044895E0,0E0,0E0,0E0,0E0,0E0,0E0,0E0,0E0],"parents":[2147483647,0,0,1,1,2,2,3,3,4,4,5,5,6,6],"right_children":[2,4,6,8,10,12,14,-1,-1,-1,-1,-1,-1,-1,-1],"split_conditions":[3.6E1,5.85E2,1.2E1,2.00001E0,6.8E1,5.1E1,2.00001E0,-4.721317E-3,1.1407204E-1,-1.7318126E-2,-8.620397E-2,6.663741E-2,1.0606792E-2,8.690414E-2,-3.8723644E-2],"split_indices":[28,24,27,25,12,12,20,0,0,0,0,0,0,0,0],"split_type":[0,0,0,0,0,0,0,0,0,0,0,0,0,0,0],"sum_hessian":[6.150695E2,8.865183E1,5.2641766E2,1.4277809E1,7.437402E1,4.1782565E2,1.08591995E2,1.097665E1,3.3011587E0,1.950112E1,5.48729E1,6.529469E1,3.5253098E2,3.9863331E0,1.0460567E2],"tree_param":{"num_deleted":"0","num_feature":"29","num_nodes":"15","size_leaf_vector":"1"}},{"base_weights":[-3.3867427E-3,-1.16080895E-1,3.8499576E-1,5.056867E-2,-3.9441067E-1,8.627707E-1,2.4189311E-1,-5.3151514E-2,1.3847442E-2,-1.3135708E-2,-6.772752E-2,1.0387664E-1,4.2264145E-2,-1.8827504E-2,4.3775227E-2],"categories":[],"categories_nodes":[],"categories_segments":[],"categories_sizes":[],"default_left":[0,0,0,0,0,0,0,0,0,0,0,0,0,0,0],"id":20,"left_children":[1,3,5,7,9,11,13,-1,-1,-1,-1,-1,-1,-1,-1],"loss_changes":[2.685009E1,2.207372E1,9.224506E0,1.5336395E1,1.3169188E1,1.9940681E0,9.144647E0,0E0,0E0,0E0,0E0,0E0,0E0,0E0,0E0],"parents":[2147483647,0,0,1,1,2,2,3,3,4,4,5,5,6,6],"right_children":[2,4,6,8,10,12,14,-1,-1,-1,-1,-1,-1,-1,-1],"split_conditions":[2.00001E0,6E0,2E0,3E1,1.16E2,4.6E3,8.6E2,-5.3151514E-2,1.3847442E-2,-1.3135708E-2,-6.772752E-2,1.0387664E-1,4.2264145E-2,-1.8827504E-2,4.3775227E-2],"split_indices":[25,27,27,28,12,2,1,0,0,0,0,0,0,0,0],"split_type":[0,0,0,0,0,0,0,0,0,0,0,0,0,0,0],"sum_hessian":[6.114367E2,4.7446558E2,1.3697115E2,2.9728494E2,1.7718063E2,3.041061E1,1.0656053E2,3.834306E1,2.589419E2,9.256394E1,8.461669E1,2.075222E1,9.658389E0,3.335068E1,7.320985E1],"tree_param":{"num_deleted":"0","num_feature":"29","num_nodes":"15","size_leaf_vector":"1"}},{"base_weights":[-3.225642E-3,-7.219796E-2,5.7114667E-1,9.3747795E-2,-3.428702E-1,6.797273E-1,-3.6075866E-1,-8.507336E-3,3.7383284E-2,-4.310779E-2,3.716431E-2,8.575509E-2,-8.966246E-4,-9.499242E-2,6.5541476E-2],"categories":[],"categories_nodes":[],"categories_segments":[],"categories_sizes":[],"default_left":[0,0,0,0,0,0,0,0,0,0,0,0,0,0,0],"id":21,"left_children":[1,3,5,7,9,11,13,-1,-1,-1,-1,-1,-1,-1,-1],"loss_changes":[2.4087624E1,2.4413174E1,6.841284E0,1.6924751E1,1.317614E1,7.200247E0,5.086408E0,0E0,0E0,0E0,0E0,0E0,0E0,0E0,0E0],"parents":[2147483647,0,0,1,1,2,2,3,3,4,4,5,5,6,6],"right_children":[2,4,6,8,10,12,14,-1,-1,-1,-1,-1,-1,-1,-1],"split_conditions":[1.57E3,3.75E3,1.7E1,2.00001E0,2.432E3,2.1E2,2.00001E0,-8.507336E-3,3.7383284E-2,-4.310779E-2,3.716431E-2,8.575509E-2,-8.966246E-4,-9.499242E-2,6.5541476E-2],"split_indices":[1,2,27,13,3,12,25,0,0,0,0,0,0,0,0],"split_type":[0,0,0,0,0,0,0,0,0,0,0,0,0,0,0],"sum_hessian":[6.059899E2,5.41803E2,6.418699E1,3.3628467E2,2.0551828E2,5.773108E1,6.4559126E0,2.0567018E2,1.306145E2,1.8328781E2,2.2230465E1,4.5688843E1,1.2042236E1,4.1278358E0,2.3280768E0],"tree_param":{"num_deleted":"0","num_feature":"29","num_nodes":"15","size_leaf_vector":"1"}},{"base_weights":[-3.0121712E-3,-1.0592992E-1,3.5011297E-1,-5.959374E-1,-2.2311058E-2,1.0155295E0,2.5759465E-1,-1.0052699E-2,-8.046049E-2,4.7682464E-2,-1.107712E-2,1.1278438E-1,4.0163617E-3,-9.999746E-3,4.1153472E-2],"categories":[],"categories_nodes":[],"categories_segments":[],"categories_sizes":[],"default_left":[0,0,0,0,0,0,0,0,0,0,0,0,0,0,0],"id":22,"left_children":[1,3,5,7,9,11,13,-1,-1,-1,-1,-1,-1,-1,-1],"loss_changes":[2.195531E1,1.9152624E1,8.131706E0,6.9639397E0,1.7741291E1,1.7405663E0,6.703806E0,0E0,0E0,0E0,0E0,0E0,0E0,0E0,0E0],"parents":[2147483647,0,0,1,1,2,2,3,3,4,4,5,5,6,6],"right_children":[2,4,6,8,10,12,14,-1,-1,-1,-1,-1,-1,-1,-1],"split_conditions":[2.00001E0,3.6E1,1E0,7E1,2.00001E0,1.55E4,8.6E2,-1.0052699E-2,-8.046049E-2,4.7682464E-2,-1.107712E-2,1.1278438E-1,4.0163617E-3,-9.999746E-3,4.1153472E-2],"split_indices":[25,28,27,12,16,2,1,0,0,0,0,0,0,0,0],"split_type":[0,0,0,0,0,0,0,0,0,0,0,0,0,0,0],"sum_hessian":[6.02096E2,4.6675967E2,1.3533632E2,6.714753E1,3.9961212E2,1.5302209E1,1.2003411E2,2.0339653E1,4.6807877E1,5.9499027E1,3.401131E2,1.3581911E1,1.7202972E0,3.6228416E1,8.38057E1],"tree_param":{"num_deleted":"0","num_feature":"29","num_nodes":"15","size_leaf_vector":"1"}},{"base_weights":[-2.688137E-3,-2.225868E-1,1.5581903E-1,1.2539469E-1,-3.7308168E-1,-2.2480644E-1,3.6727104E-1,3.9802797E-2,-2.090747E-2,-5.109939E-2,1.1270252E-3,-2.6362497E-2,9.089008E-2,5.615275E-2,4.1336617E-3],"categories":[],"categories_nodes":[],"categories_segments":[],"categories_sizes":[],"default_left":[0,0,0,0,0,0,0,0,0,0,0,0,0,0,0],"id":23,"left_children":[1,3,5,7,9,11,13,-1,-1,-1,-1,-1,-1,-1,-1],"loss_changes":[2.0886003E1,1.3191284E1,2.810919E1,7.061476E0,9.306824E0,5.7400203E0,1.41746235E1,0E0,0E0,0E0,0E0,0E0,0E0,0E0,0E0],"parents":[2147483647,0,0,1,1,2,2,3,3,4,4,5,5,6,6],"right_children":[2,4,6,8,10,12,14,-1,-1,-1,-1,-1,-1,-1,-1],"split_conditions":[2.00001E0,8.2E1,2.00001E0,5.05E3,2.00001E0,7.6E1,1.28E2,3.9802797E-2,-2.090747E-2,-5.109939E-2,1.1270252E-3,-2.6362497E-2,9.089008E-2,5.615275E-2,4.1336617E-3],"split_indices":[7,12,8,2,25,4,12,0,0,0,0,0,0,0,0],"split_type":[0,0,0,0,0,0,0,0,0,0,0,0,0,0,0],"sum_hessian":[5.972216E2,2.499957E2,3.4722592E2,7.55265E1,1.7446921E2,1.2398422E2,2.232417E2,4.150491E1,3.4021584E1,1.2815532E2,4.6313873E1,1.2062157E2,3.362658E0,1.3942297E2,8.381872E1],"tree_param":{"num_deleted":"0","num_feature":"29","num_nodes":"15","size_leaf_vector":"1"}},{"base_weights":[-2.5548069E-3,6.355562E-2,-5.1559985E-1,-6.587835E-2,3.751375E-1,-6.1855394E-1,1.8875347E-2,2.9506428E-2,-2.342227E-2,5.2486874E-2,9.680493E-4,-3.3097964E-2,-8.086509E-2,-3.7729982E-2,8.874526E-2],"categories":[],"categories_nodes":[],"categories_segments":[],"categories_sizes":[],"default_left":[0,0,0,0,0,0,0,0,0,0,0,0,0,0,0],"id":24,"left_children":[1,3,5,7,9,11,13,-1,-1,-1,-1,-1,-1,-1,-1],"loss_changes":[2.0204512E1,2.1307667E1,3.7533436E0,2.277591E1,8.478378E0,2.8508167E0,4.447968E0,0E0,0E0,0E0,0E0,0E0,0E0,0E0,0E0],"parents":[2147483647,0,0,1,1,2,2,3,3,4,4,5,5,6,6],"right_children":[2,4,6,8,10,12,14,-1,-1,-1,-1,-1,-1,-1,-1],"split_conditions":[1.6E1,1.26E3,5.7E1,1.054E3,1.62E2,1.08E2,2.00001E0,2.9506428E-2,-2.342227E-2,5.2486874E-2,9.680493E-4,-3.3097964E-2,-8.086509E-2,-3.7729982E-2,8.874526E-2],"split_indices":[27,1,0,24,12,12,25,0,0,0,0,0,0,0,0],"split_type":[0,0,0,0,0,0,0,0,0,0,0,0,0,0,0],"sum_hessian":[5.9372736E2,5.267297E2,6.6997696E1,3.7269662E2,1.5403304E2,5.6044693E1,1.0953003E1,1.183E2,2.5439662E2,1.0895636E2,4.507667E1,2.3394756E1,3.2649933E1,7.910486E0,3.042517E0],"tree_param":{"num_deleted":"0","num_feature":"29","num_nodes":"15","size_leaf_vector":"1"}},{"base_weights":[-2.568004E-3,-2.5254124E-1,1.3023636E-1,1.578725E-1,-5.653811E-1,9.648731E-1,7.93046E-2,5.0966125E-2,-5.564122E-3,-4.5216577E-3,-6.788546E-2,3.7003867E-2,1.719986E-1,2.7128378E-2,-1.5121954E-2],"categories":[],"categories_nodes":[],"categories_segments":[],"categories_sizes":[],"default_left":[0,0,0,0,0,0,0,0,0,0,0,0,0,0,0],"id":25,"left_children":[1,3,5,7,9,11,13,-1,-1,-1,-1,-1,-1,-1,-1],"loss_changes":[1.9678606E1,2.6494545E1,1.6379921E1,6.7687616E0,6.8705025E0,9.323875E0,1.6236383E1,0E0,0E0,0E0,0E0,0E0,0E0,0E0,0E0],"parents":[2147483647,0,0,1,1,2,2,3,3,4,4,5,5,6,6],"right_children":[2,4,6,8,10,12,14,-1,-1,-1,-1,-1,-1,-1,-1],"split_conditions":[8.6E2,9.46E2,1.05E3,7.3E1,5.7E1,5.8E1,3.436E3,5.0966125E-2,-5.564122E-3,-4.5216577E-3,-6.788546E-2,3.7003867E-2,1.719986E-1,2.7128378E-2,-1.5121954E-2],"split_indices":[1,24,24,12,12,4,2,0,0,0,0,0,0,0,0],"split_type":[0,0,0,0,0,0,0,0,0,0,0,0,0,0,0],"sum_hessian":[5.9078235E2,2.046586E2,3.8612375E2,8.873836E1,1.1592025E2,2.117512E1,3.649486E2,3.299244E1,5.574592E1,2.100973E1,9.491052E1,1.2678093E1,8.4970255E0,1.9902496E2,1.6592366E2],"tree_param":{"num_deleted":"0","num_feature":"29","num_nodes":"15","size_leaf_vector":"1"}},{"base_weights":[-2.3076443E-3,-6.196348E-2,4.8786184E-1,3.2990697E-1,-1.3852805E-1,9.8524606E-1,1.1037247E-1,8.7388694E-2,1.7263394E-2,3.1486865E-2,-2.1676954E-2,1.1818975E-1,-5.9861153E-2,-2.425045E-2,5.547151E-2],"categories":[],"categories_nodes":[],"categories_segments":[],"categories_sizes":[],"default_left":[0,0,0,0,0,0,0,0,0,0,0,0,0,0,0],"id":26,"left_children":[1,3,5,7,9,11,13,-1,-1,-1,-1,-1,-1,-1,-1],"loss_changes":[1.7246088E1,1.5820179E1,1.1906149E1,7.226351E0,1.5695699E1,9.268152E0,6.0155163E0,0E0,0E0,0E0,0E0,0E0,0E0,0E0,0E0],"parents":[2147483647,0,0,1,1,2,2,3,3,4,4,5,5,6,6],"right_children":[2,4,6,8,10,12,14,-1,-1,-1,-1,-1,-1,-1,-1],"split_conditions":[7.9E1,5.3E1,1.15E2,2.00001E0,2.00001E0,9.2E3,1.186E3,8.7388694E-2,1.7263394E-2,3.1486865E-2,-2.1676954E-2,1.1818975E-1,-5.9861153E-2,-2.425045E-2,5.547151E-2],"split_indices":[4,12,12,10,16,2,1,0,0,0,0,0,0,0,0],"split_type":[0,0,0,0,0,0,0,0,0,0,0,0,0,0,0],"sum_hessian":[5.8774805E2,5.247564E2,6.2991634E1,8.522935E1,4.3952707E2,2.6484873E1,3.650676E1,1.8092848E1,6.71365E1,6.424035E1,3.7528674E2,2.378546E1,2.699413E0,2.0600782E1,1.5905977E1],"tree_param":{"num_deleted":"0","num_feature":"29","num_nodes":"15","size_leaf_vector":"1"}},{"base_weights":[-1.8365027E-3,-6.170205E-2,4.8733714E-1,5.7634424E-2,-3.503565E-1,5.7188034E-1,-2.982145E-1,-2.6284825E-4,6.9445364E-2,-4.8355505E-2,2.4160878E-3,7.189085E-2,-7.2970614E-4,-8.993416E-2,6.0693562E-2],"categories":[],"categories_nodes":[],"categories_segments":[],"categories_sizes":[],"default_left":[0,0,0,0,0,0,0,0,0,0,0,0,0,0,0],"id":27,"left_children":[1,3,5,7,9,11,13,-1,-1,-1,-1,-1,-1,-1,-1],"loss_changes":[1.7161514E1,1.8004925E1,4.4142494E0,1.4210549E1,7.636835E0,4.9470444E0,4.2817097E0,0E0,0E0,0E0,0E0,0E0,0E0,0E0,0E0],"parents":[2147483647,0,0,1,1,2,2,3,3,4,4,5,5,6,6],"right_children":[2,4,6,8,10,12,14,-1,-1,-1,-1,-1,-1,-1,-1],"split_conditions":[1.57E3,1.4E2,1.7E1,7.6E1,2.00001E0,2.1E2,2.00001E0,-2.6284825E-4,6.9445364E-2,-4.8355505E-2,2.4160878E-3,7.189085E-2,-7.2970614E-4,-8.993416E-2,6.0693562E-2],"split_indices":[1,12,27,4,25,12,25,0,0,0,0,0,0,0,0],"split_type":[0,0,0,0,0,0,0,0,0,0,0,0,0,0,0],"sum_hessian":[5.839974E2,5.210987E2,6.2898697E1,3.6924466E2,1.5185402E2,5.703269E1,5.8660107E0,3.3823315E2,3.1011505E1,1.1180057E2,4.0053455E1,4.529339E1,1.1739299E1,3.5288515E0,2.3371592E0],"tree_param":{"num_deleted":"0","num_feature":"29","num_nodes":"15","size_leaf_vector":"1"}},{"base_weights":[-1.7463249E-3,-4.2232677E-1,6.434768E-2,2.6734635E-1,-5.7205856E-1,1.18315205E-1,-3.9994422E-1,-7.769822E-2,4.9687903E-2,-8.507086E-2,-2.1040227E-2,1.6870539E-3,4.3211084E-2,-5.51065E-2,1.7008683E-2],"categories":[],"categories_nodes":[],"categories_segments":[],"categories_sizes":[],"default_left":[0,0,0,0,0,0,0,0,0,0,0,0,0,0,0],"id":28,"left_children":[1,3,5,7,9,11,13,-1,-1,-1,-1,-1,-1,-1,-1],"loss_changes":[1.6208937E1,8.33045E0,1.2674237E1,3.9354367E0,6.4098873E0,1.4388498E1,4.6338453E0,0E0,0E0,0E0,0E0,0E0,0E0,0E0,0E0],"parents":[2147483647,0,0,1,1,2,2,3,3,4,4,5,5,6,6],"right_children":[2,4,6,8,10,12,14,-1,-1,-1,-1,-1,-1,-1,-1],"split_conditions":[3.6E1,5.85E2,1.6E1,2.00001E0,6.6E2,6.9E1,5.5E1,-7.769822E-2,4.9687903E-2,-8.507086E-2,-2.1040227E-2,1.6870539E-3,4.3211084E-2,-5.51065E-2,1.7008683E-2],"split_indices":[28,24,27,8,1,4,0,0,0,0,0,0,0,0,0],"split_type":[0,0,0,0,0,0,0,0,0,0,0,0,0,0,0],"sum_hessian":[5.811229E2,7.818883E1,5.0293408E2,1.3807088E1,6.438174E1,4.5122998E2,5.1704094E1,2.0580955E0,1.1748992E1,3.5600163E1,2.8781578E1,3.4178925E2,1.0944075E2,4.0895557E1,1.0808538E1],"tree_param":{"num_deleted":"0","num_feature":"29","num_nodes":"15","size_leaf_vector":"1"}},{"base_weights":[-2.0337861E-3,-9.0042815E-2,2.9679757E-1,-5.146189E-1,-2.2654837E-2,9.247462E-1,2.133759E-1,-1.7346589E-2,-7.5096175E-2,3.811586E-2,-9.549887E-3,-2.0690594E-2,1.0247018E-1,3.1662274E-2,-2.0457163E-2],"categories":[],"categories_nodes":[],"categories_segments":[],"categories_sizes":[],"default_left":[0,0,0,0,0,0,0,0,0,0,0,0,0,0,0],"id":29,"left_children":[1,3,5,7,9,11,13,-1,-1,-1,-1,-1,-1,-1,-1],"loss_changes":[1.5291284E1,1.2838417E1,6.7320604E0,4.8263283E0,1.14687395E1,1.9327536E0,5.159562E0,0E0,0E0,0E0,0E0,0E0,0E0,0E0,0E0],"parents":[2147483647,0,0,1,1,2,2,3,3,4,4,5,5,6,6],"right_children":[2,4,6,8,10,12,14,-1,-1,-1,-1,-1,-1,-1,-1],"split_conditions":[2.00001E0,3.6E1,1E0,3E2,2.00001E0,5.85E2,8.5E3,-1.7346589E-2,-7.5096175E-2,3.811586E-2,-9.549887E-3,-2.0690594E-2,1.0247018E-1,3.1662274E-2,-2.0457163E-2],"split_indices":[25,28,27,2,16,24,2,0,0,0,0,0,0,0,0],"split_type":[0,0,0,0,0,0,0,0,0,0,0,0,0,0,0],"sum_hessian":[5.794046E2,4.4812555E2,1.3127908E2,6.0474022E1,3.8765152E2,1.4212285E1,1.1706679E2,2.5458902E1,3.5015118E1,5.859508E1,3.2905643E2,1.0666118E0,1.3145673E1,9.407066E1,2.2996126E1],"tree_param":{"num_deleted":"0","num_feature":"29","num_nodes":"15","size_leaf_vector":"1"}},{"base_weights":[-1.865488E-3,-2.1726497E-1,1.0941602E-1,1.4457755E-1,-5.0650144E-1,8.560692E-1,6.251533E-2,4.3670073E-2,-3.683616E-3,-9.24718E-3,-6.458313E-2,3.3320483E-2,1.4894773E-1,2.2758229E-2,-1.3766444E-2],"categories":[],"categories_nodes":[],"categories_segments":[],"categories_sizes":[],"default_left":[0,0,0,0,0,0,0,0,0,0,0,0,0,0,0],"id":30,"left_children":[1,3,5,7,9,11,13,-1,-1,-1,-1,-1,-1,-1,-1],"loss_changes":[1.3839672E1,2.0656933E1,1.3278315E1,4.687585E0,6.258486E0,6.92951E0,1.19032345E1,0E0,0E0,0E0,0E0,0E0,0E0,0E0,0E0],"parents":[2147483647,0,0,1,1,2,2,3,3,4,4,5,5,6,6],"right_children":[2,4,6,8,10,12,14,-1,-1,-1,-1,-1,-1,-1,-1],"split_conditions":[8.6E2,9.46E2,1.05E3,7.3E1,2E0,5.8E1,3.436E3,4.3670073E-2,-3.683616E-3,-9.24718E-3,-6.458313E-2,3.3320483E-2,1.4894773E-1,2.2758229E-2,-1.3766444E-2],"split_indices":[1,24,24,12,27,4,2,0,0,0,0,0,0,0,0],"split_type":[0,0,0,0,0,0,0,0,0,0,0,0,0,0,0],"sum_hessian":[5.753835E2,1.956758E2,3.797077E2,8.714954E1,1.0852625E2,2.1421843E1,3.5828586E2,3.2848198E1,5.4301342E1,2.774462E1,8.078163E1,1.2570896E1,8.850946E0,1.9628972E2,1.6199612E2],"tree_param":{"num_deleted":"0","num_feature":"29","num_nodes":"15","size_leaf_vector":"1"}},{"base_weights":[-1.6573466E-3,-5.5284422E-2,4.3144864E-1,5.382607E-2,-3.2532483E-1,5.4894453E-1,-3.9895657E-2,1.4367138E-4,5.9931766E-2,-4.921837E-2,-2.595682E-3,6.349106E-2,-2.6490405E-2,-5.4602146E-2,7.256921E-2],"categories":[],"categories_nodes":[],"categories_segments":[],"categories_sizes":[],"default_left":[0,0,0,0,0,0,0,0,0,0,0,0,0,0,0],"id":31,"left_children":[1,3,5,7,9,11,13,-1,-1,-1,-1,-1,-1,-1,-1],"loss_changes":[1.334446E1,1.5080044E1,3.5276423E0,1.0428863E1,7.3430414E0,3.7180443E0,5.6518536E0,0E0,0E0,0E0,0E0,0E0,0E0,0E0,0E0],"parents":[2147483647,0,0,1,1,2,2,3,3,4,4,5,5,6,6],"right_children":[2,4,6,8,10,12,14,-1,-1,-1,-1,-1,-1,-1,-1],"split_conditions":[1.57E3,1.4E2,2.1E2,7.6E1,2.00001E0,1.7E1,1.98E3,1.4367138E-4,5.9931766E-2,-4.921837E-2,-2.595682E-3,6.349106E-2,-2.6490405E-2,-5.4602146E-2,7.256921E-2],"split_indices":[1,12,12,4,13,27,1,0,0,0,0,0,0,0,0],"split_type":[0,0,0,0,0,0,0,0,0,0,0,0,0,0,0],"sum_hessian":[5.7251624E2,5.1021402E2,6.2302216E1,3.6395697E2,1.4625703E2,4.973878E1,1.25634365E1,3.3298E2,3.0976974E1,9.3499245E1,5.2757797E1,4.5185722E1,4.5530586E0,7.736002E0,4.827434E0],"tree_param":{"num_deleted":"0","num_feature":"29","num_nodes":"15","size_leaf_vector":"1"}},{"base_weights":[-1.5403294E-3,-8.275802E-2,2.7403724E-1,3.2339696E-2,-2.9184127E-1,8.639193E-1,1.9805448E-1,-2.2650562E-2,1.3069567E-2,-4.7373515E-2,2.7711464E-3,-1.9901333E-2,9.629827E-2,8.200779E-2,1.3488436E-2],"categories":[],"categories_nodes":[],"categories_segments":[],"categories_sizes":[],"default_left":[0,0,0,0,0,0,0,0,0,0,0,0,0,0,0],"id":32,"left_children":[1,3,5,7,9,11,13,-1,-1,-1,-1,-1,-1,-1,-1],"loss_changes":[1.2806621E1,1.0644412E1,5.666792E0,7.308957E0,9.138831E0,1.7253609E0,4.47428E0,0E0,0E0,0E0,0E0,0E0,0E0,0E0,0E0],"parents":[2147483647,0,0,1,1,2,2,3,3,4,4,5,5,6,6],"right_children":[2,4,6,8,10,12,14,-1,-1,-1,-1,-1,-1,-1,-1],"split_conditions":[2.00001E0,6E0,1E0,2.00001E0,1.175E3,5.85E2,8E2,-2.2650562E-2,1.3069567E-2,-4.7373515E-2,2.7711464E-3,-1.9901333E-2,9.629827E-2,8.200779E-2,1.3488436E-2],"split_indices":[25,27,27,8,1,24,24,0,0,0,0,0,0,0,0],"split_type":[0,0,0,0,0,0,0,0,0,0,0,0,0,0,0],"sum_hessian":[5.701764E2,4.4092694E2,1.2924944E2,2.8492477E2,1.5600218E2,1.3565509E1,1.1568393E2,7.809576E1,2.0682901E2,9.910676E1,5.689543E1,1.0704808E0,1.2495028E1,9.560598E0,1.0612334E2],"tree_param":{"num_deleted":"0","num_feature":"29","num_nodes":"15","size_leaf_vector":"1"}},{"base_weights":[-1.2927058E-3,-1.7326021E-1,1.18296266E-1,1.0644212E-1,-3.0286297E-1,-2.0215599E-1,2.9376307E-1,3.5177533E-2,-1.9871017E-2,-4.566161E-2,-3.2343258E-4,-2.3470147E-2,7.3621534E-2,7.4432485E-2,2.0181386E-2],"categories":[],"categories_nodes":[],"categories_segments":[],"categories_sizes":[],"default_left":[0,0,0,0,0,0,0,0,0,0,0,0,0,0,0],"id":33,"left_children":[1,3,5,7,9,11,13,-1,-1,-1,-1,-1,-1,-1,-1],"loss_changes":[1.1705616E1,8.495345E0,1.8936998E1,5.6595554E0,7.360306E0,3.8186383E0,8.854273E0,0E0,0E0,0E0,0E0,0E0,0E0,0E0,0E0],"parents":[2147483647,0,0,1,1,2,2,3,3,4,4,5,5,6,6],"right_children":[2,4,6,8,10,12,14,-1,-1,-1,-1,-1,-1,-1,-1],"split_conditions":[2.00001E0,8.2E1,2.00001E0,5.05E3,2.00001E0,7.6E1,5.3E1,3.5177533E-2,-1.9871017E-2,-4.566161E-2,-3.2343258E-4,-2.3470147E-2,7.3621534E-2,7.4432485E-2,2.0181386E-2],"split_indices":[7,12,8,2,13,4,12,0,0,0,0,0,0,0,0],"split_type":[0,0,0,0,0,0,0,0,0,0,0,0,0,0,0],"sum_hessian":[5.671927E2,2.3246378E2,3.347289E2,7.366414E1,1.5879964E2,1.18380455E2,2.1634846E2,4.074977E1,3.2914368E1,1.0460044E2,5.41992E1,1.1513705E2,3.2434075E0,3.546601E1,1.8088245E2],"tree_param":{"num_deleted":"0","num_feature":"29","num_nodes":"15","size_leaf_vector":"1"}},{"base_weights":[-1.0965009E-3,-5.884063E-1,3.36876E-2,3.0396035E-1,-7.797981E-1,7.855996E-1,7.095228E-3,-6.374013E-2,7.9619E-2,-9.76182E-2,-3.5689976E-2,1.0635978E-1,1.2779457E-2,-4.4397404E-3,4.1170083E-2],"categories":[],"categories_nodes":[],"categories_segments":[],"categories_sizes":[],"default_left":[0,0,0,0,0,0,0,0,0,0,0,0,0,0,0],"id":34,"left_children":[1,3,5,7,9,11,13,-1,-1,-1,-1,-1,-1,-1,-1],"loss_changes":[1.1570045E1,5.6455307E0,1.0686124E1,3.4322455E0,1.8404236E0,3.2024975E0,1.0799135E1,0E0,0E0,0E0,0E0,0E0,0E0,0E0,0E0],"parents":[2147483647,0,0,1,1,2,2,3,3,4,4,5,5,6,6],"right_children":[2,4,6,8,10,12,14,-1,-1,-1,-1,-1,-1,-1,-1],"split_conditions":[2.4E1,5.5E2,2.00001E0,2E0,6.25E2,1.53E3,7.9E1,-6.374013E-2,7.9619E-2,-9.76182E-2,-3.5689976E-2,1.0635978E-1,1.2779457E-2,-4.4397404E-3,4.1170083E-2],"split_indices":[28,24,20,27,1,24,4,0,0,0,0,0,0,0,0],"split_type":[0,0,0,0,0,0,0,0,0,0,0,0,0,0,0],"sum_hessian":[5.643825E2,3.0667261E1,5.337153E2,5.3119698E0,2.5355291E1,1.725584E1,5.164594E2,1.7226229E0,3.5893471E0,1.642131E1,8.933979E0,1.16960335E1,5.559807E0,4.5894186E2,5.7517536E1],"tree_param":{"num_deleted":"0","num_feature":"29","num_nodes":"15","size_leaf_vector":"1"}},{"base_weights":[-1.0526545E-3,4.6270773E-2,-4.0524244E-1,-5.198345E-2,2.7650142E-1,-5.131416E-1,1.1150074E-1,2.2160843E-2,-1.8539462E-2,2.0270308E-2,1.1080631E-1,-8.170784E-2,-3.1979147E-2,-2.7109865E-2,8.351364E-2],"categories":[],"categories_nodes":[],"categories_segments":[],"categories_sizes":[],"default_left":[0,0,0,0,0,0,0,0,0,0,0,0,0,0,0],"id":35,"left_children":[1,3,5,7,9,11,13,-1,-1,-1,-1,-1,-1,-1,-1],"loss_changes":[1.0818574E1,1.1468311E1,3.3624706E0,1.3025203E1,9.079416E0,2.6311255E0,3.2889109E0,0E0,0E0,0E0,0E0,0E0,0E0,0E0,0E0],"parents":[2147483647,0,0,1,1,2,2,3,3,4,4,5,5,6,6],"right_children":[2,4,6,8,10,12,14,-1,-1,-1,-1,-1,-1,-1,-1],"split_conditions":[1.6E1,1.26E3,5.7E1,1.054E3,5.2E1,4.8E1,2.00001E0,2.2160843E-2,-1.8539462E-2,2.0270308E-2,1.1080631E-1,-8.170784E-2,-3.1979147E-2,-2.7109865E-2,8.351364E-2],"split_indices":[27,1,0,24,0,28,25,0,0,0,0,0,0,0,0],"split_type":[0,0,0,0,0,0,0,0,0,0,0,0,0,0,0],"sum_hessian":[5.636185E2,5.0533798E2,5.8280556E1,3.5472726E2,1.5061072E2,4.8219086E1,1.006147E1,1.1605903E2,2.3866823E2,1.3947643E2,1.1134304E1,1.7493797E1,3.0725286E1,6.9907165E0,3.0707533E0],"tree_param":{"num_deleted":"0","num_feature":"29","num_nodes":"15","size_leaf_vector":"1"}},{"base_weights":[-9.785275E-4,-1.9378452E-1,9.641106E-2,1.1901292E-1,-4.3255818E-1,6.877225E-1,4.7262788E-2,3.5934143E-2,-3.1324115E-3,-1.8294094E-2,-6.362595E-2,2.5982542E-2,1.2548655E-1,-2.3290908E-2,1.3531764E-2],"categories":[],"categories_nodes":[],"categories_segments":[],"categories_sizes":[],"default_left":[0,0,0,0,0,0,0,0,0,0,0,0,0,0,0],"id":36,"left_children":[1,3,5,7,9,11,13,-1,-1,-1,-1,-1,-1,-1,-1],"loss_changes":[1.0584585E1,1.4180374E1,1.0851855E1,2.998385E0,5.349497E0,6.630763E0,8.588627E0,0E0,0E0,0E0,0E0,0E0,0E0,0E0,0E0],"parents":[2147483647,0,0,1,1,2,2,3,3,4,4,5,5,6,6],"right_children":[2,4,6,8,10,12,14,-1,-1,-1,-1,-1,-1,-1,-1],"split_conditions":[8.6E2,9.04E2,1.088E3,7.3E1,9E1,5.8E1,1.04E3,3.5934143E-2,-3.1324115E-3,-1.8294094E-2,-6.362595E-2,2.5982542E-2,1.2548655E-1,-2.3290908E-2,1.3531764E-2],"split_indices":[1,24,24,12,12,4,1,0,0,0,0,0,0,0,0],"split_type":[0,0,0,0,0,0,0,0,0,0,0,0,0,0,0],"sum_hessian":[5.616956E2,1.8817278E2,3.7352283E2,8.167662E1,1.0649616E2,2.7666729E1,3.458561E2,3.0896038E1,5.0780582E1,4.8707573E1,5.7788586E1,1.6600296E1,1.1066433E1,8.231194E1,2.6354416E2],"tree_param":{"num_deleted":"0","num_feature":"29","num_nodes":"15","size_leaf_vector":"1"}},{"base_weights":[-9.217114E-4,-7.450485E-2,2.4867153E-1,1.575208E-2,-3.0962804E-1,6.2660974E-1,1.4768255E-1,-3.947209E-3,6.1556187E-2,-5.1867973E-2,1.2303009E-3,9.3238614E-2,3.337475E-2,2.1767626E-2,-4.6512168E-2],"categories":[],"categories_nodes":[],"categories_segments":[],"categories_sizes":[],"default_left":[0,0,0,0,0,0,0,0,0,0,0,0,0,0,0],"id":37,"left_children":[1,3,5,7,9,11,13,-1,-1,-1,-1,-1,-1,-1,-1],"loss_changes":[1.0311656E1,9.206763E0,4.7867165E0,1.0434637E1,8.104453E0,2.0751686E0,4.4844046E0,0E0,0E0,0E0,0E0,0E0,0E0,0E0,0E0],"parents":[2147483647,0,0,1,1,2,2,3,3,4,4,5,5,6,6],"right_children":[2,4,6,8,10,12,14,-1,-1,-1,-1,-1,-1,-1,-1],"split_conditions":[2.00001E0,1.4E2,2E0,8.1E1,1.3E3,1.464E3,1.4E4,-3.947209E-3,6.1556187E-2,-5.1867973E-2,1.2303009E-3,9.3238614E-2,3.337475E-2,2.1767626E-2,-4.6512168E-2],"split_indices":[25,12,27,4,1,24,2,0,0,0,0,0,0,0,0],"split_type":[0,0,0,0,0,0,0,0,0,0,0,0,0,0,0],"sum_hessian":[5.5944916E2,4.326115E2,1.2683767E2,3.1328394E2,1.1932756E2,2.5648127E1,1.01189545E2,2.8772723E2,2.5556704E1,7.197691E1,4.7350643E1,1.147912E1,1.4169007E1,9.139528E1,9.794263E0],"tree_param":{"num_deleted":"0","num_feature":"29","num_nodes":"15","size_leaf_vector":"1"}},{"base_weights":[-7.375194E-4,8.959931E-2,-1.9768661E-1,6.1352346E-2,8.9550126E-1,-3.0521393E-1,3.2327482E-1,-1.9153697E-2,1.5436544E-2,1.3578898E-1,8.9580065E-4,-3.643879E-2,3.9606094E-2,4.9677398E-2,-3.1429954E-2],"categories":[],"categories_nodes":[],"categories_segments":[],"categories_sizes":[],"default_left":[0,0,0,0,0,0,0,0,0,0,0,0,0,0,0],"id":38,"left_children":[1,3,5,7,9,11,13,-1,-1,-1,-1,-1,-1,-1,-1],"loss_changes":[9.934223E0,8.65901E0,9.933954E0,8.753918E0,5.2713757E0,6.2050047E0,3.5327163E0,0E0,0E0,0E0,0E0,0E0,0E0,0E0,0E0],"parents":[2147483647,0,0,1,1,2,2,3,3,4,4,5,5,6,6],"right_children":[2,4,6,8,10,12,14,-1,-1,-1,-1,-1,-1,-1,-1],"split_conditions":[4.03E3,1.889E3,1.8E3,2.00001E0,2.6E3,1.98E3,2.032E3,-1.9153697E-2,1.5436544E-2,1.3578898E-1,8.9580065E-4,-3.643879E-2,3.9606094E-2,4.9677398E-2,-3.1429954E-2],"split_indices":[2,1,3,8,24,1,24,0,0,0,0,0,0,0,0],"split_type":[0,0,0,0,0,0,0,0,0,0,0,0,0,0,0],"sum_hessian":[5.563655E2,3.8179047E2,1.74575E2,3.699015E2,1.1888964E1,1.4505048E2,2.9524529E1,9.91816E1,2.7071988E2,7.464228E0,4.4247355E0,1.3420645E2,1.0844017E1,2.3382446E1,6.142082E0],"tree_param":{"num_deleted":"0","num_feature":"29","num_nodes":"15","size_leaf_vector":"1"}},{"base_weights":[-5.023631E-4,-5.37627E-1,2.9790943E-2,2.4333347E-1,-7.170567E-1,3.5233065E-1,-2.4986047E-2,-6.322266E-2,7.018707E-2,-9.221708E-2,-2.9264716E-2,8.1243515E-3,6.321328E-2,1.3768792E-2,-1.4927014E-2],"categories":[],"categories_nodes":[],"categories_segments":[],"categories_sizes":[],"default_left":[0,0,0,0,0,0,0,0,0,0,0,0,0,0,0],"id":39,"left_children":[1,3,5,7,9,11,13,-1,-1,-1,-1,-1,-1,-1,-1],"loss_changes":[9.065791E0,4.3427E0,9.3273945E0,2.9746737E0,1.8578491E0,5.761591E0,9.154915E0,0E0,0E0,0E0,0E0,0E0,0E0,0E0,0E0],"parents":[2147483647,0,0,1,1,2,2,3,3,4,4,5,5,6,6],"right_children":[2,4,6,8,10,12,14,-1,-1,-1,-1,-1,-1,-1,-1],"split_conditions":[2.4E1,5.5E2,1E0,2E0,6.25E2,3.2E1,1E2,-6.322266E-2,7.018707E-2,-9.221708E-2,-2.9264716E-2,8.1243515E-3,6.321328E-2,1.3768792E-2,-1.4927014E-2],"split_indices":[28,24,27,27,1,0,12,0,0,0,0,0,0,0,0],"split_type":[0,0,0,0,0,0,0,0,0,0,0,0,0,0,0],"sum_hessian":[5.5518085E2,2.8745886E1,5.2643494E2,5.3040547E0,2.3441832E1,7.563664E1,4.507983E2,1.692843E0,3.611212E0,1.5013218E1,8.428613E0,3.9071987E1,3.656466E1,1.9519804E2,2.5560027E2],"tree_param":{"num_deleted":"0","num_feature":"29","num_nodes":"15","size_leaf_vector":"1"}},{"base_weights":[-6.326553E-4,6.6792536E-1,-2.4092939E-2,1.5237829E-1,9.336875E-1,-1.788145E-1,8.3938085E-2,-2.837412E-2,1.0428583E-1,1.4850299E-1,1.2405768E-2,2.6410574E-2,-2.4399215E-2,-1.8079886E-2,2.276777E-2],"categories":[],"categories_nodes":[],"categories_segments":[],"categories_sizes":[],"default_left":[0,0,0,0,0,0,0,0,0,0,0,0,0,0,0],"id":40,"left_children":[1,3,5,7,9,11,13,-1,-1,-1,-1,-1,-1,-1,-1],"loss_changes":[8.705069E0,2.4356947E0,8.9769E0,3.245512E0,5.27075E0,6.4375987E0,1.2081267E1,0E0,0E0,0E0,0E0,0E0,0E0,0E0,0E0],"parents":[2147483647,0,0,1,1,2,2,3,3,4,4,5,5,6,6],"right_children":[2,4,6,8,10,12,14,-1,-1,-1,-1,-1,-1,-1,-1],"split_conditions":[2.00001E0,7.68E2,2.00001E0,4.8E1,1.53E3,1E0,2.00001E0,-2.837412E-2,1.0428583E-1,1.4850299E-1,1.2405768E-2,2.6410574E-2,-2.4399215E-2,-1.8079886E-2,2.276777E-2],"split_indices":[20,1,7,4,24,27,8,0,0,0,0,0,0,0,0],"split_type":[0,0,0,0,0,0,0,0,0,0,0,0,0,0,0],"sum_hessian":[5.529827E2,1.7815521E1,5.3516724E2,6.595125E0,1.1220397E1,2.1976521E2,3.15402E2,4.884342E0,1.710783E0,6.178648E0,5.0417485E0,2.7799467E1,1.9196576E2,1.1089669E2,2.0450531E2],"tree_param":{"num_deleted":"0","num_feature":"29","num_nodes":"15","size_leaf_vector":"1"}},{"base_weights":[-2.3788972E-4,-6.809861E-2,2.3044024E-1,2.5889704E-1,-1.3001296E-1,3.9122576E-1,3.6178928E-2,-3.359592E-2,3.9732855E-2,-2.6816044E-2,6.8413997E-3,2.1717975E-2,8.7919794E-2,1.6895471E-2,-3.9116055E-2],"categories":[],"categories_nodes":[],"categories_segments":[],"categories_sizes":[],"default_left":[0,0,0,0,0,0,0,0,0,0,0,0,0,0,0],"id":41,"left_children":[1,3,5,7,9,11,13,-1,-1,-1,-1,-1,-1,-1,-1],"loss_changes":[8.664307E0,8.692205E0,3.915556E0,5.7676306E0,9.893673E0,5.646784E0,3.3614228E0,0E0,0E0,0E0,0E0,0E0,0E0,0E0,0E0],"parents":[2147483647,0,0,1,1,2,2,3,3,4,4,5,5,6,6],"right_children":[2,4,6,8,10,12,14,-1,-1,-1,-1,-1,-1,-1,-1],"split_conditions":[2.00001E0,2.00001E0,1.25E2,2.3E1,1.13E3,1.702E3,8.5E3,-3.359592E-2,3.9732855E-2,-2.6816044E-2,6.8413997E-3,2.1717975E-2,8.7919794E-2,1.6895471E-2,-3.9116055E-2],"split_indices":[25,16,12,0,1,24,2,0,0,0,0,0,0,0,0],"split_type":[0,0,0,0,0,0,0,0,0,0,0,0,0,0,0],"sum_hessian":[5.514864E2,4.2667288E2,1.2481353E2,6.741968E1,3.592532E2,6.773607E1,5.707746E1,1.2458245E1,5.4961433E1,2.1159E2,1.476632E2,5.0993263E1,1.6742804E1,4.4008507E1,1.30689535E1],"tree_param":{"num_deleted":"0","num_feature":"29","num_nodes":"15","size_leaf_vector":"1"}},{"base_weights":[-1.1952207E-4,4.0798657E-2,-3.615736E-1,1.1998631E-1,-1.3991557E-1,-4.9717498E-1,7.4364275E-2,9.535503E-3,1.409308E-1,-2.326985E-2,2.75819E-2,-2.1649672E-2,-6.960524E-2,-3.3334386E-2,6.617068E-2],"categories":[],"categories_nodes":[],"categories_segments":[],"categories_sizes":[],"default_left":[0,0,0,0,0,0,0,0,0,0,0,0,0,0,0],"id":42,"left_children":[1,3,5,7,9,11,13,-1,-1,-1,-1,-1,-1,-1,-1],"loss_changes":[8.136637E0,7.0889583E0,3.344108E0,1.079546E1,5.890105E0,2.2385406E0,3.607383E0,0E0,0E0,0E0,0E0,0E0,0E0,0E0,0E0],"parents":[2147483647,0,0,1,1,2,2,3,3,4,4,5,5,6,6],"right_children":[2,4,6,8,10,12,14,-1,-1,-1,-1,-1,-1,-1,-1],"split_conditions":[1.6E1,1.37E2,5.5E1,1.01E2,1.58E3,1.07E2,6E1,9.535503E-3,1.409308E-1,-2.326985E-2,2.75819E-2,-2.1649672E-2,-6.960524E-2,-3.3334386E-2,6.617068E-2],"split_indices":[27,12,0,4,1,12,28,0,0,0,0,0,0,0,0],"split_type":[0,0,0,0,0,0,0,0,0,0,0,0,0,0,0],"sum_hessian":[5.4814545E2,4.9320016E2,5.4945282E1,3.4316418E2,1.50036E2,4.1802017E1,1.3143266E1,3.3778506E2,5.3791103E0,1.2302071E2,2.701528E1,1.8201956E1,2.360006E1,8.013258E0,5.1300087E0],"tree_param":{"num_deleted":"0","num_feature":"29","num_nodes":"15","size_leaf_vector":"1"}},{"base_weights":[-6.313387E-5,-5.0093174E-1,2.7316762E-2,2.1763639E-1,-6.7365736E-1,3.1143177E-1,-2.446915E-2,-6.1256547E-2,6.5092154E-2,-8.7655865E-2,-2.6762366E-2,3.7717383E-2,-4.896732E-2,2.906679E-2,-7.99704E-3],"categories":[],"categories_nodes":[],"categories_segments":[],"categories_sizes":[],"default_left":[0,0,0,0,0,0,0,0,0,0,0,0,0,0,0],"id":43,"left_children":[1,3,5,7,9,11,13,-1,-1,-1,-1,-1,-1,-1,-1],"loss_changes":[7.5176506E0,3.673119E0,7.6551247E0,2.6512866E0,1.6727123E0,4.4088645E0,7.7289796E0,0E0,0E0,0E0,0E0,0E0,0E0,0E0,0E0],"parents":[2147483647,0,0,1,1,2,2,3,3,4,4,5,5,6,6],"right_children":[2,4,6,8,10,12,14,-1,-1,-1,-1,-1,-1,-1,-1],"split_conditions":[2.4E1,5.5E2,5.3E1,2E0,6.25E2,2.2E4,2.00001E0,-6.1256547E-2,6.5092154E-2,-8.7655865E-2,-2.6762366E-2,3.7717383E-2,-4.896732E-2,2.906679E-2,-7.99704E-3],"split_indices":[28,24,12,27,1,2,16,0,0,0,0,0,0,0,0],"split_type":[0,0,0,0,0,0,0,0,0,0,0,0,0,0,0],"sum_hessian":[5.461864E2,2.7413187E1,5.1877325E2,5.2620687E0,2.215112E1,7.920639E1,4.3956686E2,1.6626177E0,3.5994513E0,1.3997513E1,8.153605E0,7.368839E1,5.517997E0,6.518847E1,3.743784E2],"tree_param":{"num_deleted":"0","num_feature":"29","num_nodes":"15","size_leaf_vector":"1"}},{"base_weights":[-3.0809417E-4,-6.390705E-2,2.1576546E-1,3.4224622E-2,-2.371688E-1,7.054082E-1,1.5809217E-1,4.7941204E-2,-1.4606243E-3,-4.037712E-2,1.6357165E-2,8.457127E-2,-1.7602857E-2,6.529386E-2,1.063865E-2],"categories":[],"categories_nodes":[],"categories_segments":[],"categories_sizes":[],"default_left":[0,0,0,0,0,0,0,0,0,0,0,0,0,0,0],"id":44,"left_children":[1,3,5,7,9,11,13,-1,-1,-1,-1,-1,-1,-1,-1],"loss_changes":[7.5003476E0,7.1776314E0,3.393458E0,5.878191E0,1.0254096E1,1.7305961E0,2.8045766E0,0E0,0E0,0E0,0E0,0E0,0E0,0E0,0E0],"parents":[2147483647,0,0,1,1,2,2,3,3,4,4,5,5,6,6],"right_children":[2,4,6,8,10,12,14,-1,-1,-1,-1,-1,-1,-1,-1],"split_conditions":[2.00001E0,3.75E3,1E0,2.7E1,2.9E1,1.55E4,8E2,4.7941204E-2,-1.4606243E-3,-4.037712E-2,1.6357165E-2,8.457127E-2,-1.7602857E-2,6.529386E-2,1.063865E-2],"split_indices":[25,2,27,12,3,2,24,0,0,0,0,0,0,0,0],"split_type":[0,0,0,0,0,0,0,0,0,0,0,0,0,0,0],"sum_hessian":[5.437919E2,4.2067496E2,1.2311696E2,2.690777E2,1.5159724E2,1.1789944E1,1.1132701E2,2.5725193E1,2.433525E2,1.070748E2,4.4522453E1,1.0205924E1,1.5840198E0,9.431866E0,1.0189515E2],"tree_param":{"num_deleted":"0","num_feature":"29","num_nodes":"15","size_leaf_vector":"1"}},{"base_weights":[-2.8266573E-5,-1.691839E-1,8.340122E-2,8.461953E-2,-3.9151266E-1,7.3924917E-1,4.3974675E-2,8.371252E-2,3.8738255E-3,5.764217E-2,-4.3453168E-2,3.0494425E-2,1.2503053E-1,5.086564E-2,2.7659914E-4],"categories":[],"categories_nodes":[],"categories_segments":[],"categories_sizes":[],"default_left":[0,0,0,0,0,0,0,0,0,0,0,0,0,0,0],"id":45,"left_children":[1,3,5,7,9,11,13,-1,-1,-1,-1,-1,-1,-1,-1],"loss_changes":[7.6637483E0,1.0154518E1,9.371349E0,2.8877077E0,4.2391567E0,4.1819954E0,6.588046E0,0E0,0E0,0E0,0E0,0E0,0E0,0E0,0E0],"parents":[2147483647,0,0,1,1,2,2,3,3,4,4,5,5,6,6],"right_children":[2,4,6,8,10,12,14,-1,-1,-1,-1,-1,-1,-1,-1],"split_conditions":[8.6E2,9.46E2,1.041E3,3.5E2,2.00001E0,5.8E1,2.00001E0,8.371252E-2,3.8738255E-3,5.764217E-2,-4.3453168E-2,3.0494425E-2,1.2503053E-1,5.086564E-2,2.7659914E-4],"split_indices":[1,24,24,24,9,4,6,0,0,0,0,0,0,0,0],"split_type":[0,0,0,0,0,0,0,0,0,0,0,0,0,0,0],"sum_hessian":[5.4104443E2,1.783688E2,3.6267563E2,8.35781E1,9.4790695E1,1.9559504E1,3.4311612E2,3.8119686E0,7.9766136E1,3.5059967E0,9.12847E1,1.1436905E1,8.122598E0,2.7025452E1,3.1609067E2],"tree_param":{"num_deleted":"0","num_feature":"29","num_nodes":"15","size_leaf_vector":"1"}},{"base_weights":[4.2943237E-4,6.090558E-1,-2.1348333E-2,3.6340934E-1,1.2080194E0,-1.3297024E-1,9.793783E-2,7.629934E-2,-5.865289E-2,3.779949E-2,1.4753342E-1,8.926448E-3,-3.0829338E-2,3.3152432E-3,5.4130536E-2],"categories":[],"categories_nodes":[],"categories_segments":[],"categories_sizes":[],"default_left":[0,0,0,0,0,0,0,0,0,0,0,0,0,0,0],"id":46,"left_children":[1,3,5,7,9,11,13,-1,-1,-1,-1,-1,-1,-1,-1],"loss_changes":[7.1785374E0,2.313805E0,6.975422E0,6.026738E0,5.542159E-1,1.056903E1,7.259165E0,0E0,0E0,0E0,0E0,0E0,0E0,0E0,0E0],"parents":[2147483647,0,0,1,1,2,2,3,3,4,4,5,5,6,6],"right_children":[2,4,6,8,10,12,14,-1,-1,-1,-1,-1,-1,-1,-1],"split_conditions":[2.00001E0,4.3E1,1.04E3,1.53E3,1.15E3,1.064E3,7.9E1,7.629934E-2,-5.865289E-2,3.779949E-2,1.4753342E-1,8.926448E-3,-3.0829338E-2,3.3152432E-3,5.4130536E-2],"split_indices":[20,0,1,24,24,24,4,0,0,0,0,0,0,0,0],"split_type":[0,0,0,0,0,0,0,0,0,0,0,0,0,0,0],"sum_hessian":[5.3961053E2,1.7709644E1,5.219009E2,1.3698398E1,4.011246E0,2.6955258E2,2.5234828E2,9.780926E0,3.9174724E0,1.5652181E0,2.446028E0,1.1908923E2,1.5046335E2,2.2111366E2,3.1234621E1],"tree_param":{"num_deleted":"0","num_feature":"29","num_nodes":"15","size_leaf_vector":"1"}},{"base_weights":[7.3138805E-4,3.6571626E-2,-3.2489473E-1,-7.619803E-2,1.5643124E-1,-4.359459E-1,1.7689022E-1,-2.4902329E-2,5.7413224E-3,2.1525055E-2,-2.8124442E-2,-1.679963E-2,-6.485456E-2,4.6722416E-2,-6.212172E-2],"categories":[],"categories_nodes":[],"categories_segments":[],"categories_sizes":[],"default_left":[0,0,0,0,0,0,0,0,0,0,0,0,0,0,0],"id":47,"left_children":[1,3,5,7,9,11,13,-1,-1,-1,-1,-1,-1,-1,-1],"loss_changes":[6.305093E0,6.5900354E0,3.0621333E0,5.8200474E0,6.1424365E0,2.4060812E0,2.7043657E0,0E0,0E0,0E0,0E0,0E0,0E0,0E0,0E0],"parents":[2147483647,0,0,1,1,2,2,3,3,4,4,5,5,6,6],"right_children":[2,4,6,8,10,12,14,-1,-1,-1,-1,-1,-1,-1,-1],"split_conditions":[1.6E1,4.6E1,5.7E1,2.00001E0,9.2E3,1.08E2,1.55E4,-2.4902329E-2,5.7413224E-3,2.1525055E-2,-2.8124442E-2,-1.679963E-2,-6.485456E-2,4.6722416E-2,-6.212172E-2],"split_indices":[27,4,0,19,2,12,2,0,0,0,0,0,0,0,0],"split_type":[0,0,0,0,0,0,0,0,0,0,0,0,0,0,0],"sum_hessian":[5.382402E2,4.8567206E2,5.2568104E1,2.5042476E2,2.352473E2,4.3149742E1,9.41836E0,1.088126E2,1.4161217E2,2.0782576E2,2.742154E1,1.9881868E1,2.3267874E1,7.2100773E0,2.2082827E0],"tree_param":{"num_deleted":"0","num_feature":"29","num_nodes":"15","size_leaf_vector":"1"}},{"base_weights":[2.9707458E-4,7.038525E-2,-1.638605E-1,-1.0806446E-1,1.728977E-1,-3.0732873E-1,8.2573585E-2,4.3576006E-2,-1.6761106E-2,6.114749E-2,9.536124E-3,-4.5883268E-2,-6.3461845E-4,-1.8712769E-3,9.318717E-2],"categories":[],"categories_nodes":[],"categories_segments":[],"categories_sizes":[],"default_left":[0,0,0,0,0,0,0,0,0,0,0,0,0,0,0],"id":48,"left_children":[1,3,5,7,9,11,13,-1,-1,-1,-1,-1,-1,-1,-1],"loss_changes":[6.202869E0,6.93007E0,5.7285686E0,4.5568933E0,8.114819E0,4.655875E0,5.191144E0,0E0,0E0,0E0,0E0,0E0,0E0,0E0,0E0],"parents":[2147483647,0,0,1,1,2,2,3,3,4,4,5,5,6,6],"right_children":[2,4,6,8,10,12,14,-1,-1,-1,-1,-1,-1,-1,-1],"split_conditions":[1.4E2,8.7E2,2.00001E0,3E2,1.161E3,1.375E3,2.04E3,4.3576006E-2,-1.6761106E-2,6.114749E-2,9.536124E-3,-4.5883268E-2,-6.3461845E-4,-1.8712769E-3,9.318717E-2],"split_indices":[12,1,13,1,24,1,3,0,0,0,0,0,0,0,0],"split_type":[0,0,0,0,0,0,0,0,0,0,0,0,0,0,0],"sum_hessian":[5.3711945E2,3.768094E2,1.6031006E2,1.3746371E2,2.3934569E2,1.0116628E2,5.9143776E1,1.2942748E1,1.2452096E2,3.4922695E1,2.0442299E2,6.69444E1,3.4221886E1,5.371567E1,5.428105E0],"tree_param":{"num_deleted":"0","num_feature":"29","num_nodes":"15","size_leaf_vector":"1"}},{"base_weights":[3.9915895E-4,-5.826245E-2,2.0038426E-1,-9.711598E-2,3.4179008E-1,6.559384E-1,1.4849989E-1,5.0300825E-3,-2.7871681E-2,-5.4128952E-2,4.9905572E-2,7.9574354E-2,-1.753064E-2,-2.0908114E-2,2.1779824E-2],"categories":[],"categories_nodes":[],"categories_segments":[],"categories_sizes":[],"default_left":[0,0,0,0,0,0,0,0,0,0,0,0,0,0,0],"id":49,"left_children":[1,3,5,7,9,11,13,-1,-1,-1,-1,-1,-1,-1,-1],"loss_changes":[6.3063846E0,6.4937882E0,2.7843065E0,1.0177141E1,5.410824E0,1.5541925E0,2.7898092E0,0E0,0E0,0E0,0E0,0E0,0E0,0E0,0E0],"parents":[2147483647,0,0,1,1,2,2,3,3,4,4,5,5,6,6],"right_children":[2,4,6,8,10,12,14,-1,-1,-1,-1,-1,-1,-1,-1],"split_conditions":[2.00001E0,1.3E3,1E0,2.1E3,7E2,1.55E4,2.00001E0,5.0300825E-3,-2.7871681E-2,-5.4128952E-2,4.9905572E-2,7.9574354E-2,-1.753064E-2,-2.0908114E-2,2.1779824E-2],"split_indices":[25,3,27,2,1,2,8,0,0,0,0,0,0,0,0],"split_type":[0,0,0,0,0,0,0,0,0,0,0,0,0,0,0],"sum_hessian":[5.355672E2,4.1464737E2,1.2091981E2,3.7863153E2,3.6015858E1,1.1173359E1,1.09746445E2,2.0938422E2,1.692473E2,5.075269E0,3.0940588E1,9.601255E0,1.572104E0,1.7488464E1,9.225799E1],"tree_param":{"num_deleted":"0","num_feature":"29","num_nodes":"15","size_leaf_vector":"1"}},{"base_weights":[3.4882803E-4,-4.603243E-1,2.4530703E-2,1.4555863E-1,-6.142171E-1,5.863879E-1,3.6387001E-3,-6.423318E-2,5.6227196E-2,-8.239976E-2,-2.1459829E-2,3.5093825E-2,1.1430675E-1,3.6800403E-2,-2.8307524E-3],"categories":[],"categories_nodes":[],"categories_segments":[],"categories_sizes":[],"default_left":[0,0,0,0,0,0,0,0,0,0,0,0,0,0,0],"id":50,"left_children":[1,3,5,7,9,11,13,-1,-1,-1,-1,-1,-1,-1,-1],"loss_changes":[5.967255E0,2.5804267E0,5.9718914E0,2.4032583E0,1.625247E0,1.9894938E0,5.733784E0,0E0,0E0,0E0,0E0,0E0,0E0,0E0,0E0],"parents":[2147483647,0,0,1,1,2,2,3,3,4,4,5,5,6,6],"right_children":[2,4,6,8,10,12,14,-1,-1,-1,-1,-1,-1,-1,-1],"split_conditions":[2.4E1,5.5E2,2.00001E0,2E0,6.25E2,4.3E1,2.00001E0,-6.423318E-2,5.6227196E-2,-8.239976E-2,-2.1459829E-2,3.5093825E-2,1.1430675E-1,3.6800403E-2,-2.8307524E-3],"split_indices":[28,24,20,27,1,0,6,0,0,0,0,0,0,0,0],"split_type":[0,0,0,0,0,0,0,0,0,0,0,0,0,0,0],"sum_hessian":[5.336495E2,2.571594E1,5.0793353E2,5.2197423E0,2.0496199E1,1.7239412E1,4.9069412E2,1.6183894E0,3.6013527E0,1.2744169E1,7.75203E0,1.3261027E1,3.9783847E0,3.8706337E1,4.519878E2],"tree_param":{"num_deleted":"0","num_feature":"29","num_nodes":"15","size_leaf_vector":"1"}},{"base_weights":[3.8323997E-4,1.1145891E-1,-9.450518E-2,2.8333759E-2,4.6704707E-1,5.1874064E-2,-2.589663E-1,-3.5187524E-2,8.091163E-3,8.661153E-2,1.8802403E-2,1.9482634E-3,1.362641E-1,-3.306002E-2,2.0590203E-2],"categories":[],"categories_nodes":[],"categories_segments":[],"categories_sizes":[],"default_left":[0,0,0,0,0,0,0,0,0,0,0,0,0,0,0],"id":51,"left_children":[1,3,5,7,9,11,13,-1,-1,-1,-1,-1,-1,-1,-1],"loss_changes":[5.6370068E0,7.2698464E0,6.957116E0,4.042088E0,5.028411E0,6.4881306E0,4.5967436E0,0E0,0E0,0E0,0E0,0E0,0E0,0E0,0E0],"parents":[2147483647,0,0,1,1,2,2,3,3,4,4,5,5,6,6],"right_children":[2,4,6,8,10,12,14,-1,-1,-1,-1,-1,-1,-1,-1],"split_conditions":[1E2,6.9E1,5E0,4.3E2,2.00001E0,2.7E4,1.57E3,-3.5187524E-2,8.091163E-3,8.661153E-2,1.8802403E-2,1.9482634E-3,1.362641E-1,-3.306002E-2,2.0590203E-2],"split_indices":[12,4,27,1,13,2,1,0,0,0,0,0,0,0,0],"split_type":[0,0,0,0,0,0,0,0,0,0,0,0,0,0,0],"sum_hessian":[5.3283136E2,2.4539691E2,2.8743442E2,1.9977547E2,4.5621445E1,1.5243958E2,1.3499484E2,2.3578516E1,1.7619696E2,1.7906649E1,2.7714794E1,1.4975375E2,2.6858237E0,1.17220566E2,1.7774273E1],"tree_param":{"num_deleted":"0","num_feature":"29","num_nodes":"15","size_leaf_vector":"1"}},{"base_weights":[6.1359967E-4,6.7062214E-2,-1.4846247E-1,4.3431047E-2,7.530164E-1,1.332689E-1,-1.7585532E-1,-2.7347028E-3,2.678403E-2,1.212916E-1,-1.1389161E-2,-2.5421945E-2,2.6607981E-2],"categories":[],"categories_nodes":[],"categories_segments":[],"categories_sizes":[],"default_left":[0,0,0,0,0,0,0,0,0,0,0,0,0],"id":52,"left_children":[1,3,5,7,9,-1,11,-1,-1,-1,-1,-1,-1],"loss_changes":[5.2811475E0,5.944775E0,6.9033995E0,5.6861525E0,5.0098853E0,0E0,5.6873646E0,0E0,0E0,0E0,0E0,0E0,0E0],"parents":[2147483647,0,0,1,1,2,2,3,3,4,4,6,6],"right_children":[2,4,6,8,10,-1,12,-1,-1,-1,-1,-1,-1],"split_conditions":[4.03E3,1.889E3,2.1E1,6.9E1,2.6E3,1.332689E-1,2.3E3,-2.7347028E-3,2.678403E-2,1.212916E-1,-1.1389161E-2,-2.5421945E-2,2.6607981E-2],"split_indices":[2,1,0,4,24,0,3,0,0,0,0,0,0],"split_type":[0,0,0,0,0,0,0,0,0,0,0,0,0],"sum_hessian":[5.3112646E2,3.677549E2,1.6337155E2,3.5653555E2,1.12193575E1,2.1013074E0,1.6127025E2,2.717154E2,8.482017E1,7.0697083E0,4.1496496E0,1.3734154E2,2.3928705E1],"tree_param":{"num_deleted":"0","num_feature":"29","num_nodes":"13","size_leaf_vector":"1"}},{"base_weights":[1.0016388E-3,-5.3179495E-2,1.8621813E-1,-6.578812E-3,-3.8422236E-1,4.9761546E-1,1.1811486E-1,-2.9820905E-3,1.07424356E-1,-4.8515677E-2,3.9959714E-2,-1.69025E-2,7.105715E-2,1.9879181E-2,-2.2752494E-2],"categories":[],"categories_nodes":[],"categories_segments":[],"categories_sizes":[],"default_left":[0,0,0,0,0,0,0,0,0,0,0,0,0,0,0],"id":53,"left_children":[1,3,5,7,9,11,13,-1,-1,-1,-1,-1,-1,-1,-1],"loss_changes":[5.339303E0,6.347977E0,2.4948874E0,9.122503E0,4.211297E0,3.1436534E0,2.8370142E0,0E0,0E0,0E0,0E0,0E0,0E0,0E0,0E0],"parents":[2147483647,0,0,1,1,2,2,3,3,4,4,5,5,6,6],"right_children":[2,4,6,8,10,12,14,-1,-1,-1,-1,-1,-1,-1,-1],"split_conditions":[2.00001E0,1.83E2,6.1E1,9.3E1,2.432E3,6.25E2,8.5E3,-2.9820905E-3,1.07424356E-1,-4.8515677E-2,3.9959714E-2,-1.69025E-2,7.105715E-2,1.9879181E-2,-2.2752494E-2],"split_indices":[25,12,12,4,3,1,2,0,0,0,0,0,0,0,0],"split_type":[0,0,0,0,0,0,0,0,0,0,0,0,0,0,0],"sum_hessian":[5.300685E2,4.1065347E2,1.1941503E2,3.608734E2,4.978004E1,2.0297838E1,9.9117195E1,3.542285E2,6.644949E0,4.4438602E1,5.3414364E0,4.9641833E0,1.5333655E1,8.070454E1,1.8412657E1],"tree_param":{"num_deleted":"0","num_feature":"29","num_nodes":"15","size_leaf_vector":"1"}},{"base_weights":[1.1332353E-3,5.122614E-1,-1.7575588E-2,6.564063E-2,7.429429E-1,7.126663E-3,-4.6805158E-1,-3.5534617E-2,9.35307E-2,1.2041403E-1,5.5369767E-3,-3.325397E-3,3.185414E-2,1.14118695E-1,-5.838735E-2],"categories":[],"categories_nodes":[],"categories_segments":[],"categories_sizes":[],"default_left":[0,0,0,0,0,0,0,0,0,0,0,0,0,0,0],"id":54,"left_children":[1,3,5,7,9,11,13,-1,-1,-1,-1,-1,-1,-1,-1],"loss_changes":[5.0674806E0,1.8790689E0,5.6926675E0,3.0672536E0,3.8153281E0,6.118075E0,5.622971E0,0E0,0E0,0E0,0E0,0E0,0E0,0E0,0E0],"parents":[2147483647,0,0,1,1,2,2,3,3,4,4,5,5,6,6],"right_children":[2,4,6,8,10,12,14,-1,-1,-1,-1,-1,-1,-1,-1],"split_conditions":[2.00001E0,7.68E2,1.62E4,4.8E1,1.53E3,7.9E1,2.1E1,-3.5534617E-2,9.35307E-2,1.2041403E-1,5.5369767E-3,-3.325397E-3,3.185414E-2,1.14118695E-1,-5.838735E-2],"split_indices":[20,1,2,4,24,4,0,0,0,0,0,0,0,0,0],"split_type":[0,0,0,0,0,0,0,0,0,0,0,0,0,0,0],"sum_hessian":[5.279852E2,1.7711918E1,5.1027332E2,6.4699836E0,1.1241935E1,4.8467966E2,2.5593658E1,4.7580924E0,1.711891E0,6.278961E0,4.9629736E0,4.2983667E2,5.4842987E1,1.1239848E0,2.4469673E1],"tree_param":{"num_deleted":"0","num_feature":"29","num_nodes":"15","size_leaf_vector":"1"}},{"base_weights":[1.4642528E-3,2.335043E-1,-3.888228E-2,1.844165E-2,4.6546E-1,-8.144611E-2,2.8302345E-1,-7.1945577E-3,9.290168E-2,7.283929E-2,-1.1012725E-2,2.576652E-3,-2.7750928E-2,6.491156E-2,1.4370756E-2],"categories":[],"categories_nodes":[],"categories_segments":[],"categories_sizes":[],"default_left":[0,0,0,0,0,0,0,0,0,0,0,0,0,0,0],"id":55,"left_children":[1,3,5,7,9,11,13,-1,-1,-1,-1,-1,-1,-1,-1],"loss_changes":[4.955277E0,3.9023862E0,6.201441E0,3.5007808E0,5.7823143E0,8.395206E0,2.603932E0,0E0,0E0,0E0,0E0,0E0,0E0,0E0,0E0],"parents":[2147483647,0,0,1,1,2,2,3,3,4,4,5,5,6,6],"right_children":[2,4,6,8,10,12,14,-1,-1,-1,-1,-1,-1,-1,-1],"split_conditions":[1E0,3.2E1,1.58E3,2.00001E0,5.5E3,1.499E3,1.658E3,-7.1945577E-3,9.290168E-2,7.283929E-2,-1.1012725E-2,2.576652E-3,-2.7750928E-2,6.491156E-2,1.4370756E-2],"split_indices":[27,0,1,25,2,24,1,0,0,0,0,0,0,0,0],"split_type":[0,0,0,0,0,0,0,0,0,0,0,0,0,0,0],"sum_hessian":[5.273264E2,7.739969E1,4.4992673E2,4.0722485E1,3.6677204E1,3.9804272E2,5.1884018E1,3.7883053E1,2.8394306E0,2.4994184E1,1.1683022E1,2.5789005E2,1.4015266E2,1.3293158E1,3.859086E1],"tree_param":{"num_deleted":"0","num_feature":"29","num_nodes":"15","size_leaf_vector":"1"}},{"base_weights":[1.6785115E-3,-4.2513424E-1,2.3397587E-2,-2.0922625E-1,-8.784808E-2,2.6146477E-1,-1.9825634E-2,5.019353E-2,-4.5700736E-2,-1.9369759E-2,3.8237136E-2,2.521213E-2,-6.8242135E-3],"categories":[],"categories_nodes":[],"categories_segments":[],"categories_sizes":[],"default_left":[0,0,0,0,0,0,0,0,0,0,0,0,0],"id":56,"left_children":[1,3,5,7,-1,9,11,-1,-1,-1,-1,-1,-1],"loss_changes":[4.8949246E0,2.3189507E0,5.1748767E0,3.5127575E0,0E0,4.3263555E0,5.627925E0,0E0,0E0,0E0,0E0,0E0,0E0],"parents":[2147483647,0,0,1,1,2,2,3,3,5,5,6,6],"right_children":[2,4,6,8,-1,10,12,-1,-1,-1,-1,-1,-1],"split_conditions":[2.4E1,4.9E3,5.3E1,4.1E1,-8.784808E-2,2.00001E0,2.00001E0,5.019353E-2,-4.5700736E-2,-1.9369759E-2,3.8237136E-2,2.521213E-2,-6.8242135E-3],"split_indices":[28,2,12,12,0,8,16,0,0,0,0,0,0],"split_type":[0,0,0,0,0,0,0,0,0,0,0,0,0],"sum_hessian":[5.259675E2,2.45693E1,5.0139822E2,1.7633022E1,6.936278E0,7.626924E1,4.25129E2,4.2911587E0,1.3341863E1,1.5881193E1,6.0388046E1,6.361385E1,3.6151514E2],"tree_param":{"num_deleted":"0","num_feature":"29","num_nodes":"13","size_leaf_vector":"1"}},{"base_weights":[1.3818223E-3,-1.3180973E-1,6.574358E-2,7.0910886E-2,-3.191641E-1,8.1656873E-1,3.950703E-2,1.2320659E-2,-4.560924E-2,1.068515E-3,-4.492411E-2,6.7782006E-3,1.139304E-1,1.2112778E-2,-1.1476348E-2],"categories":[],"categories_nodes":[],"categories_segments":[],"categories_sizes":[],"default_left":[0,0,0,0,0,0,0,0,0,0,0,0,0,0,0],"id":57,"left_children":[1,3,5,7,9,11,13,-1,-1,-1,-1,-1,-1,-1,-1],"loss_changes":[4.5100284E0,6.532748E0,6.954808E0,2.347679E0,3.8346186E0,2.8045335E0,4.3424854E0,0E0,0E0,0E0,0E0,0E0,0E0,0E0,0E0],"parents":[2147483647,0,0,1,1,2,2,3,3,4,4,5,5,6,6],"right_children":[2,4,6,8,10,12,14,-1,-1,-1,-1,-1,-1,-1,-1],"split_conditions":[8.6E2,9.46E2,9.8E2,7.1E3,2E0,4.2E1,1.37E2,1.2320659E-2,-4.560924E-2,1.068515E-3,-4.492411E-2,6.7782006E-3,1.139304E-1,1.2112778E-2,-1.1476348E-2],"split_indices":[1,24,24,2,27,28,12,0,0,0,0,0,0,0,0],"split_type":[0,0,0,0,0,0,0,0,0,0,0,0,0,0,0],"sum_hessian":[5.2409686E2,1.7040639E2,3.5369046E2,8.2145294E1,8.826109E1,1.0924852E1,3.4276562E2,7.542674E1,6.718551E0,2.5221718E1,6.3039375E1,3.6549428E0,7.2699094E0,2.2430577E2,1.1845985E2],"tree_param":{"num_deleted":"0","num_feature":"29","num_nodes":"15","size_leaf_vector":"1"}},{"base_weights":[1.2284421E-3,-4.9505293E-2,1.7541626E-1,-8.472488E-2,3.0122104E-1,-1.3328815E-1,2.3721673E-1,-3.4901367E-3,-5.0190326E-2,4.5214638E-2,-4.0988084E-2,1.604738E-2,-8.3462864E-2,4.7893513E-2,1.1689939E-2],"categories":[],"categories_nodes":[],"categories_segments":[],"categories_sizes":[],"default_left":[0,0,0,0,0,0,0,0,0,0,0,0,0,0,0],"id":58,"left_children":[1,3,5,7,9,11,13,-1,-1,-1,-1,-1,-1,-1,-1],"loss_changes":[4.6341333E0,5.042167E0,2.2881875E0,7.6698265E0,4.1864085E0,4.3306184E0,2.8206382E0,0E0,0E0,0E0,0E0,0E0,0E0,0E0,0E0],"parents":[2147483647,0,0,1,1,2,2,3,3,4,4,5,5,6,6],"right_children":[2,4,6,8,10,12,14,-1,-1,-1,-1,-1,-1,-1,-1],"split_conditions":[2.00001E0,1.3E3,2.00001E0,1.5E1,2.032E3,3.6E1,9.8E1,-3.4901367E-3,-5.0190326E-2,4.5214638E-2,-4.0988084E-2,1.604738E-2,-8.3462864E-2,4.7893513E-2,1.1689939E-2],"split_indices":[25,3,8,27,24,0,12,0,0,0,0,0,0,0,0],"split_type":[0,0,0,0,0,0,0,0,0,0,0,0,0,0,0],"sum_hessian":[5.2240674E2,4.05126E2,1.1728073E2,3.6884534E2,3.6280655E1,1.936956E1,9.791116E1,3.30462E2,3.8383347E1,3.0228971E1,6.051682E0,1.4195045E1,5.1745157E0,3.1548803E1,6.6362366E1],"tree_param":{"num_deleted":"0","num_feature":"29","num_nodes":"15","size_leaf_vector":"1"}},{"base_weights":[9.1576885E-4,-1.9633949E-2,3.8911778E-1,6.3940845E-2,-1.5378018E-1,6.1603066E-2,8.9102644E-1,-1.3420015E-3,3.392684E-2,-3.812743E-2,-8.66972E-4,4.0690556E-2,-4.3844737E-2,1.5089658E-1,-2.7151171E-2],"categories":[],"categories_nodes":[],"categories_segments":[],"categories_sizes":[],"default_left":[0,0,0,0,0,0,0,0,0,0,0,0,0,0,0],"id":59,"left_children":[1,3,5,7,9,11,13,-1,-1,-1,-1,-1,-1,-1,-1],"loss_changes":[4.170747E0,5.577065E0,4.2657704E0,6.5364E0,6.298976E0,3.110254E0,7.8122826E0,0E0,0E0,0E0,0E0,0E0,0E0,0E0,0E0],"parents":[2147483647,0,0,1,1,2,2,3,3,4,4,5,5,6,6],"right_children":[2,4,6,8,10,12,14,-1,-1,-1,-1,-1,-1,-1,-1],"split_conditions":[1.895E3,1.499E3,4.2E1,1.35E3,1.25E3,1.44E2,1.36E4,-1.3420015E-3,3.392684E-2,-3.812743E-2,-8.66972E-4,4.0690556E-2,-4.3844737E-2,1.5089658E-1,-2.7151171E-2],"split_indices":[1,24,0,24,1,12,2,0,0,0,0,0,0,0,0],"split_type":[0,0,0,0,0,0,0,0,0,0,0,0,0,0,0],"sum_hessian":[5.208599E2,4.9557574E2,2.5284191E1,3.056656E2,1.8991016E2,1.5979616E1,9.304576E0,2.393616E2,6.630397E1,7.33265E1,1.16583664E2,9.562584E0,6.417032E0,5.880724E0,3.4238515E0],"tree_param":{"num_deleted":"0","num_feature":"29","num_nodes":"15","size_leaf_vector":"1"}},{"base_weights":[9.7607845E-4,4.6342993E-1,-1.609486E-2,2.5570747E-1,9.757535E-1,5.407129E-3,-4.202888E-1,5.9763093E-2,-5.8624517E-2,2.0005707E-2,1.2699302E-1,-3.2321129E-3,2.9535592E-2,1.0356193E-1,-5.340891E-2],"categories":[],"categories_nodes":[],"categories_segments":[],"categories_sizes":[],"default_left":[0,0,0,0,0,0,0,0,0,0,0,0,0,0,0],"id":60,"left_children":[1,3,5,7,9,11,13,-1,-1,-1,-1,-1,-1,-1,-1],"loss_changes":[4.120313E0,1.7278123E0,4.3772707E0,4.54631E0,8.8803387E-1,5.248975E0,4.767969E0,0E0,0E0,0E0,0E0,0E0,0E0,0E0,0E0],"parents":[2147483647,0,0,1,1,2,2,3,3,4,4,5,5,6,6],"right_children":[2,4,6,8,10,12,14,-1,-1,-1,-1,-1,-1,-1,-1],"split_conditions":[2.00001E0,4.3E1,1.62E4,1.53E3,1.15E3,7.9E1,2.1E1,5.9763093E-2,-5.8624517E-2,2.0005707E-2,1.2699302E-1,-3.2321129E-3,2.9535592E-2,1.0356193E-1,-5.340891E-2],"split_indices":[20,0,2,24,24,4,0,0,0,0,0,0,0,0,0],"split_type":[0,0,0,0,0,0,0,0,0,0,0,0,0,0,0],"sum_hessian":[5.199758E2,1.7580147E1,5.0239566E2,1.357518E1,4.004966E0,4.7795633E2,2.4439318E1,9.860813E0,3.7143674E0,1.5631772E0,2.4417887E0,4.2371136E2,5.4244976E1,1.1845398E0,2.3254778E1],"tree_param":{"num_deleted":"0","num_feature":"29","num_nodes":"15","size_leaf_vector":"1"}},{"base_weights":[1.2565758E-3,-3.910047E-1,2.0587044E-2,1.5586546E-1,-5.410315E-1,3.3032444E-1,-6.3925167E-3,-6.165246E-2,5.619044E-2,-7.540421E-2,-1.4842154E-2,4.3771368E-2,-4.2039186E-2,-1.0615734E-2,8.778462E-3],"categories":[],"categories_nodes":[],"categories_segments":[],"categories_sizes":[],"default_left":[0,0,0,0,0,0,0,0,0,0,0,0,0,0,0],"id":61,"left_children":[1,3,5,7,9,11,13,-1,-1,-1,-1,-1,-1,-1,-1],"loss_changes":[3.953879E0,2.0935915E0,4.1544127E0,2.2433453E0,1.5139604E0,3.3952594E0,4.3130293E0,0E0,0E0,0E0,0E0,0E0,0E0,0E0,0E0],"parents":[2147483647,0,0,1,1,2,2,3,3,4,4,5,5,6,6],"right_children":[2,4,6,8,10,12,14,-1,-1,-1,-1,-1,-1,-1,-1],"split_conditions":[2.4E1,5.5E2,2.00001E0,2E0,6.25E2,1.4E1,4.6E1,-6.165246E-2,5.619044E-2,-7.540421E-2,-1.4842154E-2,4.3771368E-2,-4.2039186E-2,-1.0615734E-2,8.778462E-3],"split_indices":[28,24,6,27,1,27,4,0,0,0,0,0,0,0,0],"split_type":[0,0,0,0,0,0,0,0,0,0,0,0,0,0,0],"sum_hessian":[5.193798E2,2.3489733E1,4.958901E2,5.0484505E0,1.8441284E1,3.8832474E1,4.5705762E2,1.5608761E0,3.487574E0,1.1358265E1,7.0830183E0,3.433747E1,4.495003E0,2.2188287E2,2.3517476E2],"tree_param":{"num_deleted":"0","num_feature":"29","num_nodes":"15","size_leaf_vector":"1"}},{"base_weights":[8.8953355E-4,9.3510725E-2,-7.8841664E-2,4.782637E-2,5.6693214E-1,3.232067E-2,-2.4243668E-1,-8.22774E-3,2.007038E-2,7.811055E-2,-8.515295E-2,5.6390047E-2,-1.2481896E-3,-3.9078306E-2,3.1267505E-3],"categories":[],"categories_nodes":[],"categories_segments":[],"categories_sizes":[],"default_left":[0,0,0,0,0,0,0,0,0,0,0,0,0,0,0],"id":62,"left_children":[1,3,5,7,9,11,13,-1,-1,-1,-1,-1,-1,-1,-1],"loss_changes":[3.8448474E0,5.18194E0,5.0961113E0,4.4071026E0,7.0764394E0,3.9957187E0,4.613309E0,0E0,0E0,0E0,0E0,0E0,0E0,0E0,0E0],"parents":[2147483647,0,0,1,1,2,2,3,3,4,4,5,5,6,6],"right_children":[2,4,6,8,10,12,14,-1,-1,-1,-1,-1,-1,-1,-1],"split_conditions":[1E2,7.92E2,6E0,3.5E1,5.3E1,2.00001E0,4.4E1,-8.22774E-3,2.007038E-2,7.811055E-2,-8.515295E-2,5.6390047E-2,-1.2481896E-3,-3.9078306E-2,3.1267505E-3],"split_indices":[12,3,27,0,0,6,0,0,0,0,0,0,0,0,0],"split_type":[0,0,0,0,0,0,0,0,0,0,0,0,0,0,0],"sum_hessian":[5.1864514E2,2.3984827E2,2.787969E2,2.1974434E2,2.010393E1,1.6647801E2,1.1231889E2,1.18963905E2,1.0078043E2,1.7857027E1,2.2469015E0,1.2039827E1,1.5443819E2,7.256256E1,3.975633E1],"tree_param":{"num_deleted":"0","num_feature":"29","num_nodes":"15","size_leaf_vector":"1"}},{"base_weights":[7.524914E-4,-4.5597915E-2,1.6034886E-1,-5.9169084E-3,-3.3747724E-1,2.3741943E-1,-5.376937E-2,-2.6384303E-3,9.362695E-2,-4.2484842E-2,6.365416E-2,3.1841937E-2,-1.1256769E-2,-4.2051297E-2,2.0891309E-2],"categories":[],"categories_nodes":[],"categories_segments":[],"categories_sizes":[],"default_left":[0,0,0,0,0,0,0,0,0,0,0,0,0,0,0],"id":63,"left_children":[1,3,5,7,9,11,13,-1,-1,-1,-1,-1,-1,-1,-1],"loss_changes":[3.8423195E0,4.6601353E0,1.9418619E0,6.8777614E0,4.3686357E0,2.477919E0,3.1471045E0,0E0,0E0,0E0,0E0,0E0,0E0,0E0,0E0],"parents":[2147483647,0,0,1,1,2,2,3,3,4,4,5,5,6,6],"right_children":[2,4,6,8,10,12,14,-1,-1,-1,-1,-1,-1,-1,-1],"split_conditions":[2.00001E0,1.83E2,1.2E1,9.3E1,1.87E3,8.5E3,4.3E1,-2.6384303E-3,9.362695E-2,-4.2484842E-2,6.365416E-2,3.1841937E-2,-1.1256769E-2,-4.2051297E-2,2.0891309E-2],"split_indices":[25,12,27,4,1,2,0,0,0,0,0,0,0,0,0],"split_type":[0,0,0,0,0,0,0,0,0,0,0,0,0,0,0],"sum_hessian":[5.174295E2,4.0153027E2,1.15899216E2,3.5437347E2,4.715682E1,8.51435E1,3.0755714E1,3.477903E2,6.5831556E0,4.3792385E1,3.3644338E0,6.9214836E1,1.5928667E1,1.2584729E1,1.8170986E1],"tree_param":{"num_deleted":"0","num_feature":"29","num_nodes":"15","size_leaf_vector":"1"}},{"base_weights":[8.3888986E-4,-1.5102357E-1,4.8306044E-2,1.7339303E-1,-3.3043382E-1,8.506217E-2,-2.327763E-1,3.1219801E-2,-6.330423E-2,-4.9421042E-2,-6.5516983E-4,4.6039885E-3,4.3747008E-2,-3.3178937E-2,5.0492853E-2],"categories":[],"categories_nodes":[],"categories_segments":[],"categories_sizes":[],"default_left":[0,0,0,0,0,0,0,0,0,0,0,0,0,0,0],"id":64,"left_children":[1,3,5,7,9,11,13,-1,-1,-1,-1,-1,-1,-1,-1],"loss_changes":[3.731052E0,7.2313395E0,4.0937424E0,5.1841345E0,4.224944E0,4.7854652E0,3.5178888E0,0E0,0E0,0E0,0E0,0E0,0E0,0E0,0E0],"parents":[2147483647,0,0,1,1,2,2,3,3,4,4,5,5,6,6],"right_children":[2,4,6,8,10,12,14,-1,-1,-1,-1,-1,-1,-1,-1],"split_conditions":[7.5E2,7.25E2,2.03E2,4.8E1,4.2E1,5.2E1,1.98E3,3.1219801E-2,-6.330423E-2,-4.9421042E-2,-6.5516983E-4,4.6039885E-3,4.3747008E-2,-3.3178937E-2,5.0492853E-2],"split_indices":[1,24,12,0,28,0,1,0,0,0,0,0,0,0,0],"split_type":[0,0,0,0,0,0,0,0,0,0,0,0,0,0,0],"sum_hessian":[5.1558014E2,1.2225763E2,3.933225E2,4.3547283E1,7.871035E1,3.4845383E2,4.486868E1,3.7675396E1,5.8718853E0,5.1926777E1,2.678357E1,3.1473386E2,3.371998E1,4.004427E1,4.824409E0],"tree_param":{"num_deleted":"0","num_feature":"29","num_nodes":"15","size_leaf_vector":"1"}},{"base_weights":[6.112556E-4,2.7667085E-2,-2.5931266E-1,-3.4273535E-2,1.6782635E-1,-4.493339E-1,7.18544E-2,1.6727885E-2,-1.1355094E-2,9.617079E-3,9.675425E-2,-5.6931507E-2,3.844965E-2,4.1209172E-2,-5.144527E-2],"categories":[],"categories_nodes":[],"categories_segments":[],"categories_sizes":[],"default_left":[0,0,0,0,0,0,0,0,0,0,0,0,0,0,0],"id":65,"left_children":[1,3,5,7,9,11,13,-1,-1,-1,-1,-1,-1,-1,-1],"loss_changes":[3.6349213E0,4.0698237E0,3.0988288E0,5.219751E0,8.138325E0,3.3304186E0,3.9281504E0,0E0,0E0,0E0,0E0,0E0,0E0,0E0,0E0],"parents":[2147483647,0,0,1,1,2,2,3,3,4,4,5,5,6,6],"right_children":[2,4,6,8,10,12,14,-1,-1,-1,-1,-1,-1,-1,-1],"split_conditions":[1.6E1,1.26E3,5.2E1,9.8E2,5.2E1,3.5E2,1.426E3,1.6727885E-2,-1.1355094E-2,9.617079E-3,9.675425E-2,-5.6931507E-2,3.844965E-2,4.1209172E-2,-5.144527E-2],"split_indices":[27,1,0,24,0,3,24,0,0,0,0,0,0,0,0],"split_type":[0,0,0,0,0,0,0,0,0,0,0,0,0,0,0],"sum_hessian":[5.148577E2,4.6712735E2,4.773036E1,3.2448367E2,1.4264368E2,3.0101511E1,1.7628847E1,9.12874E1,2.3319627E2,1.3194179E2,1.0701891E1,2.6592327E1,3.509184E0,1.1343367E1,6.28548E0],"tree_param":{"num_deleted":"0","num_feature":"29","num_nodes":"15","size_leaf_vector":"1"}},{"base_weights":[6.028581E-4,4.2600453E-1,-1.5226828E-2,2.0547837E-2,6.365932E-1,4.716321E-3,-3.9627165E-1,-3.7152223E-2,8.372698E-2,1.0294398E-1,4.7903354E-3,-2.5786764E-3,3.0747533E-2,9.7103424E-2,-5.081895E-2],"categories":[],"categories_nodes":[],"categories_segments":[],"categories_sizes":[],"default_left":[0,0,0,0,0,0,0,0,0,0,0,0,0,0,0],"id":66,"left_children":[1,3,5,7,9,11,13,-1,-1,-1,-1,-1,-1,-1,-1],"loss_changes":[3.4731474E0,1.5668433E0,3.7809522E0,2.667385E0,2.7593951E0,4.3812304E0,4.28008E0,0E0,0E0,0E0,0E0,0E0,0E0,0E0,0E0],"parents":[2147483647,0,0,1,1,2,2,3,3,4,4,5,5,6,6],"right_children":[2,4,6,8,10,12,14,-1,-1,-1,-1,-1,-1,-1,-1],"split_conditions":[2.00001E0,7.68E2,1.62E4,4.8E1,1.53E3,1.3E3,2.1E1,-3.7152223E-2,8.372698E-2,1.0294398E-1,4.7903354E-3,-2.5786764E-3,3.0747533E-2,9.7103424E-2,-5.081895E-2],"split_indices":[20,1,2,4,24,3,0,0,0,0,0,0,0,0,0],"split_type":[0,0,0,0,0,0,0,0,0,0,0,0,0,0,0],"sum_hessian":[5.138016E2,1.7503613E1,4.9629794E2,6.3586216E0,1.114499E1,4.7255304E2,2.374489E1,4.6645126E0,1.694109E0,6.235319E0,4.909671E0,4.3013193E2,4.2421127E1,1.2157466E0,2.2529144E1],"tree_param":{"num_deleted":"0","num_feature":"29","num_nodes":"15","size_leaf_vector":"1"}},{"base_weights":[9.362046E-4,5.49449E-2,-1.2189887E-1,1.5260968E-1,-6.896344E-2,1.0620443E0,-1.4650434E-1,6.8854066E-3,5.498606E-2,-3.5271693E-2,2.9892044E-3,1.7719107E-2,1.3818213E-1,-3.707588E-2,-2.5063113E-4],"categories":[],"categories_nodes":[],"categories_segments":[],"categories_sizes":[],"default_left":[0,0,0,0,0,0,0,0,0,0,0,0,0,0,0],"id":67,"left_children":[1,3,5,7,9,11,13,-1,-1,-1,-1,-1,-1,-1,-1],"loss_changes":[3.4202769E0,4.343956E0,4.742484E0,6.6352787E0,4.4573402E0,6.965265E-1,5.0084887E0,0E0,0E0,0E0,0E0,0E0,0E0,0E0,0E0],"parents":[2147483647,0,0,1,1,2,2,3,3,4,4,5,5,6,6],"right_children":[2,4,6,8,10,12,14,-1,-1,-1,-1,-1,-1,-1,-1],"split_conditions":[4.03E3,1.1E2,2.1E1,6.9E1,2.00001E0,1.12E3,3.6E1,6.8854066E-3,5.498606E-2,-3.5271693E-2,2.9892044E-3,1.7719107E-2,1.3818213E-1,-3.707588E-2,-2.5063113E-4],"split_indices":[2,12,0,4,7,1,0,0,0,0,0,0,0,0,0],"split_type":[0,0,0,0,0,0,0,0,0,0,0,0,0,0,0],"sum_hessian":[5.1354565E2,3.5709094E2,1.5645473E2,1.9956322E2,1.5752774E2,2.3269272E0,1.5412779E2,1.6578314E2,3.378007E1,4.003727E1,1.1749046E2,1.0302465E0,1.2966806E0,5.9652924E1,9.447487E1],"tree_param":{"num_deleted":"0","num_feature":"29","num_nodes":"15","size_leaf_vector":"1"}},{"base_weights":[1.071778E-3,1.958424E-1,-3.2973353E-2,1.2712777E-2,3.956815E-1,1.0930171E0,-4.239052E-2,-6.990096E-3,8.888119E-2,6.3696675E-2,-1.1874406E-2,1.3535829E-1,2.247608E-2,-4.9067553E-2,-3.2197486E-4],"categories":[],"categories_nodes":[],"categories_segments":[],"categories_sizes":[],"default_left":[0,0,0,0,0,0,0,0,0,0,0,0,0,0,0],"id":68,"left_children":[1,3,5,7,9,11,13,-1,-1,-1,-1,-1,-1,-1,-1],"loss_changes":[3.4089708E0,2.7942638E0,4.686827E0,3.0258064E0,4.611537E0,5.2540207E-1,7.6362596E0,0E0,0E0,0E0,0E0,0E0,0E0,0E0,0E0],"parents":[2147483647,0,0,1,1,2,2,3,3,4,4,5,5,6,6],"right_children":[2,4,6,8,10,12,14,-1,-1,-1,-1,-1,-1,-1,-1],"split_conditions":[1E0,3.2E1,3.5E2,2.00001E0,5.5E3,7E0,4.4E2,-6.990096E-3,8.888119E-2,6.3696675E-2,-1.1874406E-2,1.3535829E-1,2.247608E-2,-4.9067553E-2,-3.2197486E-4],"split_indices":[27,0,24,25,2,27,1,0,0,0,0,0,0,0,0],"split_type":[0,0,0,0,0,0,0,0,0,0,0,0,0,0,0],"sum_hessian":[5.1212286E2,7.549084E1,4.3663202E2,3.994732E1,3.5543518E1,2.6670926E0,4.3396494E2,3.7345917E1,2.6014037E0,2.4032944E1,1.1510575E1,1.6215076E0,1.045585E0,3.3946133E1,4.000188E2],"tree_param":{"num_deleted":"0","num_feature":"29","num_nodes":"15","size_leaf_vector":"1"}},{"base_weights":[1.4321604E-3,-4.1545294E-2,1.5016769E-1,1.792039E-1,-8.505499E-2,-1.2782201E-1,2.0629606E-1,2.3785679E-2,-9.5223896E-2,4.0313777E-2,-1.272134E-2,1.5064636E-2,-7.909543E-2,5.4111626E-2,1.3652391E-2],"categories":[],"categories_nodes":[],"categories_segments":[],"categories_sizes":[],"default_left":[0,0,0,0,0,0,0,0,0,0,0,0,0,0,0],"id":69,"left_children":[1,3,5,7,9,11,13,-1,-1,-1,-1,-1,-1,-1,-1],"loss_changes":[3.2801943E0,3.83927E0,1.821254E0,4.598108E0,6.910358E0,3.8016562E0,2.1709394E0,0E0,0E0,0E0,0E0,0E0,0E0,0E0,0E0],"parents":[2147483647,0,0,1,1,2,2,3,3,4,4,5,5,6,6],"right_children":[2,4,6,8,10,12,14,-1,-1,-1,-1,-1,-1,-1,-1],"split_conditions":[2.00001E0,2.00001E0,2.00001E0,9E3,2.3E1,3.6E1,6.1E1,2.3785679E-2,-9.5223896E-2,4.0313777E-2,-1.272134E-2,1.5064636E-2,-7.909543E-2,5.4111626E-2,1.3652391E-2],"split_indices":[25,16,8,2,0,0,12,0,0,0,0,0,0,0,0],"split_type":[0,0,0,0,0,0,0,0,0,0,0,0,0,0,0],"sum_hessian":[5.111738E2,3.9714E2,1.1403379E2,6.4874825E1,3.322652E2,1.894192E1,9.509187E1,6.2428375E1,2.446451E0,2.5731611E1,3.0653357E2,1.3884319E1,5.0576E0,1.523366E1,7.9858215E1],"tree_param":{"num_deleted":"0","num_feature":"29","num_nodes":"15","size_leaf_vector":"1"}},{"base_weights":[1.1889278E-3,-2.2108507E-1,3.0392366E-2,6.0278323E-2,-4.5080772E-1,3.3733997E-1,3.9717043E-3,7.904408E-2,-1.2167614E-2,-6.7008585E-2,-8.312071E-3,-1.9349376E-2,4.6821352E-2,-9.598224E-3,9.710695E-3],"categories":[],"categories_nodes":[],"categories_segments":[],"categories_sizes":[],"default_left":[0,0,0,0,0,0,0,0,0,0,0,0,0,0,0],"id":70,"left_children":[1,3,5,7,9,11,13,-1,-1,-1,-1,-1,-1,-1,-1],"loss_changes":[3.3183603E0,3.8643527E0,3.6627328E0,3.7584982E0,2.5888538E0,2.5773997E0,3.8914075E0,0E0,0E0,0E0,0E0,0E0,0E0,0E0,0E0],"parents":[2147483647,0,0,1,1,2,2,3,3,4,4,5,5,6,6],"right_children":[2,4,6,8,10,12,14,-1,-1,-1,-1,-1,-1,-1,-1],"split_conditions":[3.6E1,3E2,2.00001E0,2.7E1,7.6E2,7.5E2,4.6E1,7.904408E-2,-1.2167614E-2,-6.7008585E-2,-8.312071E-3,-1.9349376E-2,4.6821352E-2,-9.598224E-3,9.710695E-3],"split_indices":[28,2,6,12,1,1,4,0,0,0,0,0,0,0,0],"split_type":[0,0,0,0,0,0,0,0,0,0,0,0,0,0,0],"sum_hessian":[5.091767E2,5.8366383E1,4.508103E2,2.6566025E1,3.1800358E1,3.4795715E1,4.160146E2,4.632433E0,2.1933592E1,1.9405207E1,1.239515E1,6.7873187E0,2.8008396E1,2.0064703E2,2.1536757E2],"tree_param":{"num_deleted":"0","num_feature":"29","num_nodes":"15","size_leaf_vector":"1"}},{"base_weights":[1.0475903E-3,-2.6707405E-2,2.1337092E-1,5.8336515E-2,-1.9523385E-1,1.5738197E-1,1.1838587E-1,3.400017E-3,8.308225E-2,3.8909364E-2,-2.5086386E-2,2.118578E-2,-5.388978E-2],"categories":[],"categories_nodes":[],"categories_segments":[],"categories_sizes":[],"default_left":[0,0,0,0,0,0,0,0,0,0,0,0,0],"id":71,"left_children":[1,3,5,7,9,11,-1,-1,-1,-1,-1,-1,-1],"loss_changes":[3.007145E0,6.479893E0,3.0191543E0,5.6253037E0,5.025515E0,2.27349E0,0E0,0E0,0E0,0E0,0E0,0E0,0E0],"parents":[2147483647,0,0,1,1,2,2,3,3,4,4,5,5],"right_children":[2,4,6,8,10,12,-1,-1,-1,-1,-1,-1,-1],"split_conditions":[1.57E3,1.499E3,5.6E1,1.36E3,2.00001E0,3.69E3,1.1838587E-1,3.400017E-3,8.308225E-2,3.8909364E-2,-2.5086386E-2,2.118578E-2,-5.388978E-2],"split_indices":[1,24,0,1,6,24,0,0,0,0,0,0,0],"split_type":[0,0,0,0,0,0,0,0,0,0,0,0,0],"sum_hessian":[5.0832117E2,4.5032828E2,5.799289E1,2.997291E2,1.505992E2,5.592846E1,2.064432E0,2.9158698E2,8.142123E0,1.2570165E1,1.3802904E2,5.251546E1,3.4129982E0],"tree_param":{"num_deleted":"0","num_feature":"29","num_nodes":"13","size_leaf_vector":"1"}},{"base_weights":[1.2650954E-3,3.9782774E-1,-1.3566855E-2,2.1464813E-1,8.474528E-1,-9.1532655E-2,6.7601115E-2,5.1737513E-2,-5.4283775E-2,3.456903E-2,1.4188749E-1,7.3368847E-3,-2.288811E-2,1.718105E-3,4.1081082E-2],"categories":[],"categories_nodes":[],"categories_segments":[],"categories_sizes":[],"default_left":[0,0,0,0,0,0,0,0,0,0,0,0,0,0,0],"id":72,"left_children":[1,3,5,7,9,11,13,-1,-1,-1,-1,-1,-1,-1,-1],"loss_changes":[2.9973235E0,1.3312678E0,3.1153147E0,3.5813618E0,9.3709064E-1,5.7021265E0,4.1682734E0,0E0,0E0,0E0,0E0,0E0,0E0,0E0,0E0],"parents":[2147483647,0,0,1,1,2,2,3,3,4,4,5,5,6,6],"right_children":[2,4,6,8,10,12,14,-1,-1,-1,-1,-1,-1,-1,-1],"split_conditions":[2.00001E0,4.3E1,1.04E3,1.53E3,1.42E3,1.064E3,7.9E1,5.1737513E-2,-5.4283775E-2,3.456903E-2,1.4188749E-1,7.3368847E-3,-2.288811E-2,1.718105E-3,4.1081082E-2],"split_indices":[20,0,1,24,1,24,4,0,0,0,0,0,0,0,0],"split_type":[0,0,0,0,0,0,0,0,0,0,0,0,0,0,0],"sum_hessian":[5.0767548E2,1.737218E1,4.9030328E2,1.339314E1,3.9790416E0,2.5001958E2,2.402837E2,9.795415E0,3.5977244E0,2.9732296E0,1.005812E0,1.1382559E2,1.3619398E2,2.104213E2,2.98624E1],"tree_param":{"num_deleted":"0","num_feature":"29","num_nodes":"15","size_leaf_vector":"1"}},{"base_weights":[1.4881915E-3,-2.3351125E-2,2.3511735E-1,-4.7060743E-2,4.3182606E-1,-4.405509E-2,5.203935E-1,1.4032421E-3,-2.3449432E-2,1.116749E-2,9.009783E-2,5.2388854E-2,-3.213714E-2,2.4938717E-2,1.3161981E-1],"categories":[],"categories_nodes":[],"categories_segments":[],"categories_sizes":[],"default_left":[0,0,0,0,0,0,0,0,0,0,0,0,0,0,0],"id":73,"left_children":[1,3,5,7,9,11,13,-1,-1,-1,-1,-1,-1,-1,-1],"loss_changes":[2.9514632E0,4.9822073E0,3.915489E0,5.017754E0,3.333168E0,4.2041945E0,4.9021163E0,0E0,0E0,0E0,0E0,0E0,0E0,0E0,0E0],"parents":[2147483647,0,0,1,1,2,2,3,3,4,4,5,5,6,6],"right_children":[2,4,6,8,10,12,14,-1,-1,-1,-1,-1,-1,-1,-1],"split_conditions":[1.3E3,1.895E3,4.6E1,4.03E3,4.2E1,2E0,2.00001E0,1.4032421E-3,-2.3449432E-2,1.116749E-2,9.009783E-2,5.2388854E-2,-3.213714E-2,2.4938717E-2,1.3161981E-1],"split_indices":[3,1,4,2,0,27,7,0,0,0,0,0,0,0,0],"split_type":[0,0,0,0,0,0,0,0,0,0,0,0,0,0,0],"sum_hessian":[5.0664728E2,4.5877106E2,4.787622E1,4.3690958E2,2.1861471E1,2.4624325E1,2.3251898E1,3.302056E2,1.06703964E2,1.37300625E1,8.131409E0,7.787137E0,1.6837187E1,1.8324858E1,4.9270396E0],"tree_param":{"num_deleted":"0","num_feature":"29","num_nodes":"15","size_leaf_vector":"1"}},{"base_weights":[1.766853E-3,1.772058E-1,-3.189431E-2,-1.7109866E-1,2.7216092E-1,-2.0102336E-1,2.1417681E-2,-4.74538E-2,2.462774E-2,4.053109E-2,-1.3259246E-2,2.3963437E-3,-4.759115E-2,2.4552574E-2,-4.0242253E-3],"categories":[],"categories_nodes":[],"categories_segments":[],"categories_sizes":[],"default_left":[0,0,0,0,0,0,0,0,0,0,0,0,0,0,0],"id":74,"left_children":[1,3,5,7,9,11,13,-1,-1,-1,-1,-1,-1,-1,-1],"loss_changes":[2.998865E0,2.750188E0,3.8463464E0,2.412459E0,3.536336E0,6.333356E0,4.499323E0,0E0,0E0,0E0,0E0,0E0,0E0,0E0,0E0],"parents":[2147483647,0,0,1,1,2,2,3,3,4,4,5,5,6,6],"right_children":[2,4,6,8,10,12,14,-1,-1,-1,-1,-1,-1,-1,-1],"split_conditions":[5.3E1,2.00001E0,8E2,1.339E3,4.8E1,9.46E2,1.209E3,-4.74538E-2,2.462774E-2,4.053109E-2,-1.3259246E-2,2.3963437E-3,-4.759115E-2,2.4552574E-2,-4.0242253E-3],"split_indices":[12,8,1,24,0,24,24,0,0,0,0,0,0,0,0],"split_type":[0,0,0,0,0,0,0,0,0,0,0,0,0,0,0],"sum_hessian":[5.0585358E2,8.074637E1,4.251072E2,1.7125715E1,6.3620655E1,1.01220535E2,3.2388666E2,9.837057E0,7.288659E0,4.787127E1,1.5749384E1,5.6164547E1,4.5055984E1,6.9241356E1,2.5464531E2],"tree_param":{"num_deleted":"0","num_feature":"29","num_nodes":"15","size_leaf_vector":"1"}},{"base_weights":[1.4840317E-3,2.4880309E-2,-2.2757363E-1,-5.25899E-2,1.0676753E-1,-3.451537E-1,2.6337638E-1,-2.0072572E-2,5.803946E-3,6.4010486E-2,6.631478E-3,-4.3184478E-2,2.4600971E-2,6.576982E-2,-4.795184E-2],"categories":[],"categories_nodes":[],"categories_segments":[],"categories_sizes":[],"default_left":[0,0,0,0,0,0,0,0,0,0,0,0,0,0,0],"id":75,"left_children":[1,3,5,7,9,11,13,-1,-1,-1,-1,-1,-1,-1,-1],"loss_changes":[2.715619E0,2.921946E0,2.8018382E0,3.8939605E0,4.786352E0,2.0701313E0,3.1396694E0,0E0,0E0,0E0,0E0,0E0,0E0,0E0,0E0],"parents":[2147483647,0,0,1,1,2,2,3,3,4,4,5,5,6,6],"right_children":[2,4,6,8,10,12,14,-1,-1,-1,-1,-1,-1,-1,-1],"split_conditions":[1.6E1,4.6E1,5.7E1,2.00001E0,2.00001E0,2.9E1,2.00001E0,-2.0072572E-2,5.803946E-3,6.4010486E-2,6.631478E-3,-4.3184478E-2,2.4600971E-2,6.576982E-2,-4.795184E-2],"split_indices":[27,4,0,19,9,27,7,0,0,0,0,0,0,0,0],"split_type":[0,0,0,0,0,0,0,0,0,0,0,0,0,0,0],"sum_hessian":[5.0467426E2,4.5871213E2,4.596213E1,2.3589711E2,2.22815E2,3.7320927E1,8.641206E0,1.0050444E2,1.3539267E2,1.46636E1,2.0815141E2,3.278297E1,4.5379543E0,5.7198453E0,2.9213603E0],"tree_param":{"num_deleted":"0","num_feature":"29","num_nodes":"15","size_leaf_vector":"1"}},{"base_weights":[1.3608589E-3,-3.810039E-2,1.3822095E-1,-3.6184199E-3,-2.984969E-1,6.8147026E-2,3.4288973E-1,-2.2346557E-3,8.543101E-2,-6.907459E-2,-7.798473E-3,-4.9465735E-2,1.3302894E-2,6.1188345E-3,6.6744655E-2],"categories":[],"categories_nodes":[],"categories_segments":[],"categories_sizes":[],"default_left":[0,0,0,0,0,0,0,0,0,0,0,0,0,0,0],"id":76,"left_children":[1,3,5,7,9,11,13,-1,-1,-1,-1,-1,-1,-1,-1],"loss_changes":[2.7331307E0,3.5262153E0,1.6009791E0,5.6091676E0,3.9184313E0,3.1922722E0,2.5775557E0,0E0,0E0,0E0,0E0,0E0,0E0,0E0,0E0],"parents":[2147483647,0,0,1,1,2,2,3,3,4,4,5,5,6,6],"right_children":[2,4,6,8,10,12,14,-1,-1,-1,-1,-1,-1,-1,-1],"split_conditions":[2.00001E0,1.83E2,2.00001E0,9.3E1,1.035E3,2.00001E0,5.4E1,-2.2346557E-3,8.543101E-2,-6.907459E-2,-7.798473E-3,-4.9465735E-2,1.3302894E-2,6.1188345E-3,6.6744655E-2],"split_indices":[25,12,19,4,1,8,28,0,0,0,0,0,0,0,0],"split_type":[0,0,0,0,0,0,0,0,0,0,0,0,0,0,0],"sum_hessian":[5.0409738E2,3.9183896E2,1.1225841E2,3.4691415E2,4.4924824E1,8.461956E1,2.7638847E1,3.4045612E2,6.4580283E0,1.5399535E1,2.952529E1,8.062154E0,7.65574E1,1.54325695E1,1.2206278E1],"tree_param":{"num_deleted":"0","num_feature":"29","num_nodes":"15","size_leaf_vector":"1"}},{"base_weights":[1.2673634E-3,1.7543331E-1,-2.9164951E-2,6.462088E-1,9.621471E-2,1.0292317E0,-3.8173866E-2,-6.411342E-2,8.837406E-2,1.2703103E-2,-9.1077976E-2,1.2659548E-1,2.129071E-2,-4.419404E-2,-3.8221336E-4],"categories":[],"categories_nodes":[],"categories_segments":[],"categories_sizes":[],"default_left":[0,0,0,0,0,0,0,0,0,0,0,0,0,0,0],"id":77,"left_children":[1,3,5,7,9,11,13,-1,-1,-1,-1,-1,-1,-1,-1],"loss_changes":[2.6755896E0,2.7380266E0,4.136984E0,3.8200965E0,2.146556E0,4.382949E-1,5.9220815E0,0E0,0E0,0E0,0E0,0E0,0E0,0E0,0E0],"parents":[2147483647,0,0,1,1,2,2,3,3,4,4,5,5,6,6],"right_children":[2,4,6,8,10,12,14,-1,-1,-1,-1,-1,-1,-1,-1],"split_conditions":[1E0,2.00001E0,3.5E2,2.00001E0,5.5E1,7E0,4.4E2,-6.411342E-2,8.837406E-2,1.2703103E-2,-9.1077976E-2,1.2659548E-1,2.129071E-2,-4.419404E-2,-3.8221336E-4],"split_indices":[27,15,24,8,0,27,1,0,0,0,0,0,0,0,0],"split_type":[0,0,0,0,0,0,0,0,0,0,0,0,0,0,0],"sum_hessian":[5.0283688E2,7.408416E1,4.2875272E2,9.639834E0,6.444433E1,2.662881E0,4.2608984E2,1.2369308E0,8.402904E0,6.3378647E1,1.0656788E0,1.6372906E0,1.0255903E0,3.24783E1,3.9361154E2],"tree_param":{"num_deleted":"0","num_feature":"29","num_nodes":"15","size_leaf_vector":"1"}},{"base_weights":[1.2087902E-3,7.806718E-2,-6.5608904E-2,1.0336871E-1,-6.6975874E-1,2.8392827E-2,-2.0744132E-1,5.902446E-3,5.7777043E-2,-8.914701E-2,1.5343075E-2,4.187482E-4,9.352786E-2,-3.4833368E-2,4.575984E-3],"categories":[],"categories_nodes":[],"categories_segments":[],"categories_sizes":[],"default_left":[0,0,0,0,0,0,0,0,0,0,0,0,0,0,0],"id":78,"left_children":[1,3,5,7,9,11,13,-1,-1,-1,-1,-1,-1,-1,-1],"loss_changes":[2.5898519E0,4.5066767E0,3.6027708E0,4.7563233E0,1.5619581E0,3.5770113E0,3.8563976E0,0E0,0E0,0E0,0E0,0E0,0E0,0E0,0E0],"parents":[2147483647,0,0,1,1,2,2,3,3,4,4,5,5,6,6],"right_children":[2,4,6,8,10,12,14,-1,-1,-1,-1,-1,-1,-1,-1],"split_conditions":[1E2,2.2E4,6E0,7.92E2,5.35E4,2.7E4,4.4E1,5.902446E-3,5.7777043E-2,-8.914701E-2,1.5343075E-2,4.187482E-4,9.352786E-2,-3.4833368E-2,4.575984E-3],"split_indices":[12,2,27,3,2,2,0,0,0,0,0,0,0,0,0],"split_type":[0,0,0,0,0,0,0,0,0,0,0,0,0,0,0],"sum_hessian":[5.0230634E2,2.3352321E2,2.687831E2,2.2671445E2,6.8087544E0,1.6212918E2,1.0665393E2,2.083624E2,1.8352058E1,5.2986984E0,1.510056E0,1.5889285E2,3.2363315E0,6.828269E1,3.837124E1],"tree_param":{"num_deleted":"0","num_feature":"29","num_nodes":"15","size_leaf_vector":"1"}},{"base_weights":[1.1115273E-3,-3.6104202E-2,1.301529E-1,-6.492715E-2,2.406614E-1,4.8653728E-1,9.456391E-2,4.021591E-3,-2.01787E-2,3.2933977E-2,-7.974591E-2,-3.668297E-2,6.258791E-2,5.0241094E-2,4.9668583E-3],"categories":[],"categories_nodes":[],"categories_segments":[],"categories_sizes":[],"default_left":[0,0,0,0,0,0,0,0,0,0,0,0,0,0,0],"id":79,"left_children":[1,3,5,7,9,11,13,-1,-1,-1,-1,-1,-1,-1,-1],"loss_changes":[2.4165225E0,3.1313608E0,1.382585E0,5.109729E0,3.6735773E0,1.4169517E0,1.8729193E0,0E0,0E0,0E0,0E0,0E0,0E0,0E0,0E0],"parents":[2147483647,0,0,1,1,2,2,3,3,4,4,5,5,6,6],"right_children":[2,4,6,8,10,12,14,-1,-1,-1,-1,-1,-1,-1,-1],"split_conditions":[2.00001E0,1.3E3,1E0,2.1E3,1.805E3,8E2,8E2,4.021591E-3,-2.01787E-2,3.2933977E-2,-7.974591E-2,-3.668297E-2,6.258791E-2,5.0241094E-2,4.9668583E-3],"split_indices":[25,3,27,2,1,24,24,0,0,0,0,0,0,0,0],"split_type":[0,0,0,0,0,0,0,0,0,0,0,0,0,0,0],"sum_hessian":[5.0121536E2,3.8958008E2,1.11635284E2,3.535283E2,3.6051765E1,8.985402E0,1.0264988E2,2.0033012E2,1.5319817E2,3.3843536E1,2.2082305E0,1.0320789E0,7.9533234E0,9.168536E0,9.3481346E1],"tree_param":{"num_deleted":"0","num_feature":"29","num_nodes":"15","size_leaf_vector":"1"}},{"base_weights":[1.0040594E-3,-3.2180715E-1,1.590379E-2,-1.1679235E-1,-8.064188E-1,5.378278E-1,4.4702427E-3,4.5152158E-2,-3.399456E-2,-9.134986E-2,-2.1677682E-2,-5.1134523E-2,8.3841875E-2,-4.9087405E-2,2.9928603E-3],"categories":[],"categories_nodes":[],"categories_segments":[],"categories_sizes":[],"default_left":[0,0,0,0,0,0,0,0,0,0,0,0,0,0,0],"id":80,"left_children":[1,3,5,7,9,11,13,-1,-1,-1,-1,-1,-1,-1,-1],"loss_changes":[2.4147294E0,2.106495E0,2.8609495E0,2.2758E0,2.0704365E-1,3.6700149E0,5.948654E0,0E0,0E0,0E0,0E0,0E0,0E0,0E0,0E0],"parents":[2147483647,0,0,1,1,2,2,3,3,4,4,5,5,6,6],"right_children":[2,4,6,8,10,12,14,-1,-1,-1,-1,-1,-1,-1,-1],"split_conditions":[2.4E1,4.9E3,3E2,4.1E1,1.94E4,2.4E1,4.3E2,4.5152158E-2,-3.399456E-2,-9.134986E-2,-2.1677682E-2,-5.1134523E-2,8.3841875E-2,-4.9087405E-2,2.9928603E-3],"split_indices":[28,2,1,12,2,0,1,0,0,0,0,0,0,0,0],"split_type":[0,0,0,0,0,0,0,0,0,0,0,0,0,0,0],"sum_hessian":[4.999795E2,2.1150196E1,4.7882928E2,1.5734656E1,5.4155393E0,9.277686E0,4.695516E2,4.1478295E0,1.1586826E1,4.118391E0,1.2971483E0,1.909989E0,7.367697E0,2.2059408E1,4.4749222E2],"tree_param":{"num_deleted":"0","num_feature":"29","num_nodes":"15","size_leaf_vector":"1"}},{"base_weights":[6.1747245E-4,1.10635914E-1,-4.1077007E-2,1.4857702E-1,-4.3225953E-1,-3.4557176E-1,-8.882645E-3,-4.6352837E-3,2.8731002E-2,3.0322133E-2,-6.1133385E-2,-1.0980452E-2,-7.5978495E-2,-5.77599E-3,1.6487435E-2],"categories":[],"categories_nodes":[],"categories_segments":[],"categories_sizes":[],"default_left":[0,0,0,0,0,0,0,0,0,0,0,0,0,0,0],"id":81,"left_children":[1,3,5,7,9,11,13,-1,-1,-1,-1,-1,-1,-1,-1],"loss_changes":[2.3012187E0,2.9040468E0,3.5633247E0,3.5183046E0,1.4051718E0,3.3112473E0,2.8125176E0,0E0,0E0,0E0,0E0,0E0,0E0,0E0,0E0],"parents":[2147483647,0,0,1,1,2,2,3,3,4,4,5,5,6,6],"right_children":[2,4,6,8,10,12,14,-1,-1,-1,-1,-1,-1,-1,-1],"split_conditions":[7.2E1,1.62E4,3.6E1,3E1,2.00001E0,7E0,1.736E3,-4.6352837E-3,2.8731002E-2,3.0322133E-2,-6.1133385E-2,-1.0980452E-2,-7.5978495E-2,-5.77599E-3,1.6487435E-2],"split_indices":[12,2,28,0,15,27,24,0,0,0,0,0,0,0,0],"split_type":[0,0,0,0,0,0,0,0,0,0,0,0,0,0,0],"sum_hessian":[4.9967438E2,1.368685E2,3.6280585E2,1.2860693E2,8.261575E0,3.376089E1,3.2904498E2,5.375008E1,7.485685E1,1.4819102E0,6.7796645E0,2.2321016E1,1.1439876E1,2.5732727E2,7.1717705E1],"tree_param":{"num_deleted":"0","num_feature":"29","num_nodes":"15","size_leaf_vector":"1"}},{"base_weights":[3.2594884E-4,5.6959644E-2,-8.145087E-2,-1.4004377E-2,3.063421E-1,-2.6791593E-1,9.242015E-2,3.4858168E-3,-5.5106897E-2,4.7372084E-2,-1.8392703E-2,2.5353355E-2,